595 300
not 0.08496094 -0.095214844 0.119140625 0.111816406 -0.111328125 0.049804688 0.11425781 -0.09863281 0.099609375 -0.041503906 0.012878418 -0.18164062 -0.11621094 0.023803711 -0.1640625 0.12695312 0.12060547 0.009460449 0.041503906 -0.095214844 -0.12988281 -0.115234375 0.07519531 -0.049804688 0.06591797 -0.029052734 -0.08984375 0.084472656 -0.047851562 -0.02709961 -0.103027344 0.110839844 0.014221191 -0.09863281 0.041259766 0.072265625 0.10986328 0.011352539 -0.014831543 0.045654297 0.140625 0.14648438 0.25976562 -0.16796875 -0.0014572144 -0.021484375 0.018920898 0.040039062 0.055908203 0.038085938 0.002029419 0.07128906 -0.052490234 -0.027832031 0.111328125 0.119140625 -0.052490234 -0.07910156 0.103027344 -0.11816406 0.036621094 0.13671875 -0.09033203 -0.0703125 -0.0390625 -0.017456055 -0.08154297 0.2421875 -0.18066406 0.095703125 0.09033203 0.19921875 0.04736328 -0.05517578 -0.22265625 -0.07421875 0.16113281 0.104003906 0.11376953 0.11279297 0.0049743652 -0.05102539 0.03955078 0.049072266 -0.13964844 -0.08886719 -0.11328125 0.13671875 -0.032958984 -0.234375 0.10986328 -0.021484375 -0.17675781 -0.030883789 0.060302734 -0.17382812 0.122558594 0.106933594 -0.08544922 0.060058594 -0.07910156 0.051513672 0.025024414 0.088378906 -0.09326172 -0.008178711 -0.099121094 -0.15429688 0.031982422 -0.02722168 -0.17773438 -0.045898438 -0.087890625 -0.002090454 0.13378906 -0.08886719 0.09082031 -0.12890625 -0.0005226135 0.09863281 -0.13085938 0.027709961 0.049072266 0.08935547 -0.11328125 -0.041015625 -0.091796875 -0.10839844 0.040283203 -0.25390625 -0.029296875 -0.10644531 -0.076660156 -0.07470703 -0.13378906 -0.21191406 0.028930664 0.076660156 0.05517578 0.018920898 0.05126953 -0.20703125 0.19628906 -0.091796875 -0.026123047 0.029296875 0.027709961 -0.20019531 0.103027344 0.061523438 0.079589844 0.11669922 -0.041503906 -0.05517578 0.09326172 0.07373047 -0.091796875 -0.04248047 -0.09667969 0.05908203 0.095703125 0.15527344 0.09082031 0.051757812 0.087402344 -0.08935547 0.095214844 0.08203125 0.13476562 -0.09082031 -0.096191406 -0.0390625 -0.118652344 -0.07910156 -0.088378906 0.0037231445 0.20214844 -0.083496094 -0.08154297 -0.110839844 -0.110839844 -0.059326172 0.10253906 0.053466797 0.010986328 -0.0078125 -0.037841797 0.048339844 -0.06347656 0.20507812 -0.015380859 -0.021118164 0.0043640137 0.10839844 0.123046875 -0.026000977 -0.0034637451 -0.012573242 -0.020019531 -0.11621094 0.08105469 0.095214844 -0.060791016 0.20214844 -0.03173828 0.06933594 -0.06542969 0.020507812 0.029052734 -0.051513672 -0.059814453 0.014282227 -0.015319824 -0.0061950684 -0.23632812 -0.0068969727 0.18359375 -0.11376953 -0.11376953 -0.072753906 -0.047851562 -0.083984375 -0.21777344 -0.03540039 0.12597656 -0.08154297 0.17089844 0.07080078 -0.010681152 0.099609375 0.12011719 -0.01586914 -0.09716797 0.014099121 0.10546875 -0.092285156 -0.0030212402 -0.1640625 0.06982422 -0.14746094 0.041992188 0.007080078 0.10498047 -0.115234375 0.01977539 -0.033203125 0.009094238 0.008239746 -0.0015182495 -0.099609375 0.033935547 -0.0037384033 0.27734375 0.006439209 0.18847656 0.04321289 0.09472656 0.0546875 -0.13867188 -0.07470703 0.037353516 -0.064453125 -0.25195312 0.14257812 -0.04736328 0.12597656 -0.041748047 -0.056640625 -0.009216309 -0.02355957 0.18847656 0.11035156 0.3515625 0.07763672 -0.09814453 -0.053710938 -0.035888672 -0.16601562 0.032470703 -0.08105469 0.096191406 -0.013549805 -0.014343262 0.12988281 0.019165039 0.004211426 -0.0036010742 -0.17480469 -0.08691406 0.07324219 -0.06640625 0.034423828 -0.005706787 -0.033203125 -0.0009384155 0.031982422 0.06347656 -0.10888672 0.048828125 -0.13085938
really 0.096191406 -0.028686523 -0.10839844 0.14550781 -0.091796875 0.041503906 0.036865234 -0.15527344 0.012268066 0.032470703 -0.07861328 -0.19921875 -0.03100586 -0.21386719 -0.25195312 0.12890625 0.091796875 0.24316406 0.04321289 -0.12792969 -0.02709961 0.087402344 0.1953125 0.024780273 0.1328125 -0.007080078 -0.03540039 -0.104003906 0.012329102 0.033935547 -0.18066406 0.1875 0.19628906 0.032226562 0.2890625 -0.021850586 0.047851562 0.009399414 0.060058594 0.23339844 0.16894531 -0.09423828 0.17480469 -0.027954102 -0.018188477 0.088378906 0.07861328 -0.0859375 0.06689453 0.017333984 0.107421875 0.22753906 -0.059570312 -0.06542969 0.114746094 0.1484375 -0.060302734 0.021240234 0.18164062 -0.15136719 -0.012817383 0.0859375 -0.14648438 -0.10888672 -0.09423828 -0.064941406 -0.04663086 0.09765625 -0.091796875 0.14550781 0.010009766 0.049072266 0.083984375 -0.13671875 -0.31640625 -0.032226562 0.10205078 0.16796875 -0.00077056885 0.21582031 0.057373047 -0.03515625 0.13378906 -0.013061523 -0.25390625 -0.12451172 -0.14257812 0.28125 0.05810547 -0.23730469 0.078125 0.15234375 -0.21484375 0.035888672 -0.07714844 -0.18359375 0.18066406 0.06689453 -0.03515625 -0.20019531 -0.21777344 0.06201172 0.07324219 0.16113281 -0.15039062 0.16699219 -0.079589844 -0.017211914 -0.06225586 -0.061279297 -0.099121094 0.016235352 0.0069274902 0.05053711 0.23535156 -0.12451172 -0.022338867 -0.09863281 0.08251953 -0.095703125 -0.2578125 0.08300781 -0.0031585693 0.31640625 -0.017456055 0.08984375 -0.14746094 -0.024414062 -0.057617188 -0.03881836 -0.06201172 -0.21679688 -0.096191406 -0.00982666 0.015625 -0.08496094 0.19726562 -0.009521484 0.023803711 0.076171875 -0.04321289 -0.059326172 0.20507812 -0.08642578 -0.021118164 0.13476562 0.024780273 -0.16699219 -0.07763672 -0.021240234 0.23925781 0.24902344 -0.2890625 0.15820312 -0.018676758 0.06542969 0.0016174316 -0.18164062 -0.092285156 0.03515625 -0.05102539 0.12011719 -0.043945312 0.25390625 0.025024414 -0.17773438 0.049560547 -0.12451172 0.13378906 -0.016357422 -0.21875 0.064453125 0.16503906 -0.12060547 -0.05053711 0.12011719 0.21777344 -0.15136719 0.012573242 -0.008056641 -0.044189453 -0.056640625 0.23144531 -0.025756836 -0.036621094 0.04272461 -0.16210938 0.014953613 0.06347656 -0.07910156 0.010009766 -0.0036468506 0.17285156 -0.095214844 0.03112793 -0.025390625 -0.0069274902 0.103027344 0.018066406 -0.14648438 0.07519531 0.03466797 -0.063964844 0.1484375 0.083984375 0.004211426 -0.17773438 -0.024169922 -0.026123047 0.040527344 0.038085938 0.25976562 -0.07763672 0.087402344 -0.16308594 -0.15429688 0.22460938 -0.010498047 -0.083496094 -0.052490234 -0.17089844 0.087402344 -0.01953125 0.036621094 0.07324219 -0.07910156 0.09326172 -0.087890625 -0.041748047 0.045654297 -0.02734375 0.048583984 -0.021728516 -0.099609375 -0.020141602 -0.029907227 -0.055664062 -0.03881836 0.23046875 0.01940918 0.16015625 0.19726562 -0.030639648 -0.015625 -0.12060547 0.05078125 -0.100097656 0.056396484 -0.13378906 -0.040039062 -0.0390625 0.13769531 0.10546875 0.19238281 0.16796875 -0.104003906 0.04711914 -0.076660156 -0.15234375 -0.21582031 -0.06591797 -0.079589844 -0.23925781 -0.052490234 -0.09082031 0.15625 0.23535156 -0.13964844 -0.125 0.103027344 -0.08544922 0.09082031 0.35351562 0.13671875 -0.059570312 -0.14550781 -0.009399414 -0.27148438 -0.14746094 -0.059814453 0.13867188 -0.07470703 0.09814453 0.15234375 -0.022338867 -0.078125 -0.20996094 -0.31835938 -0.013000488 0.0859375 -0.122558594 0.10839844 -0.19335938 0.07763672 -0.23535156 -0.039794922 0.17578125 0.06933594 0.10449219 -0.1640625
good 0.040527344 0.0625 -0.017456055 0.07861328 0.032714844 -0.012634277 0.009643555 0.123535156 -0.021484375 0.15234375 -0.05834961 -0.10644531 0.021240234 0.13574219 -0.13183594 0.17675781 0.27148438 0.13769531 -0.17382812 -0.14160156 -0.030761719 0.19628906 -0.032958984 0.125 0.25390625 0.12695312 -0.15234375 0.031982422 0.011352539 -0.01361084 -0.12890625 0.010192871 0.23925781 -0.084472656 0.140625 0.13085938 -0.045166016 0.064941406 0.025390625 0.056152344 0.24609375 -0.20507812 0.23632812 -0.008605957 -0.022949219 0.05078125 0.10644531 -0.03564453 0.087402344 -0.057128906 0.08496094 0.23535156 -0.10107422 -0.03564453 -0.04736328 0.04736328 -0.14550781 -0.10986328 0.14746094 -0.23242188 -0.072753906 0.19628906 -0.37890625 -0.072265625 0.048339844 0.119140625 0.061035156 -0.12109375 -0.27929688 0.052001953 0.049072266 -0.02709961 0.1328125 0.033691406 -0.32226562 0.042236328 -0.087890625 0.15429688 0.09472656 0.103515625 -0.028564453 0.0012817383 -0.004272461 0.24609375 -0.059570312 -0.16894531 -0.096191406 0.16796875 0.013366699 0.048828125 0.083496094 0.06347656 -0.008728027 -0.08642578 -0.03857422 -0.08251953 0.15722656 0.22753906 -0.0076293945 -0.19921875 -0.06347656 0.12792969 -0.06347656 -0.030273438 0.045654297 0.06298828 -0.025268555 -0.067871094 -0.011413574 -0.13574219 0.029785156 0.104003906 -0.15917969 -0.084472656 0.29882812 -0.12597656 0.11425781 -0.08105469 -0.09082031 -0.07910156 -0.111816406 -0.096191406 0.027709961 0.14257812 -0.26757812 -0.09375 0.039794922 -0.17871094 -0.028198242 0.0146484375 -0.31640625 -0.24511719 -0.08935547 0.09716797 -0.009643555 -0.14746094 0.15234375 0.21582031 0.059814453 0.23828125 -0.051513672 0.14941406 0.13574219 -0.032226562 -0.265625 -0.111816406 -0.23046875 -0.140625 0.25585938 -0.15429688 0.1796875 0.15527344 -0.21582031 0.36328125 -0.1015625 0.049804688 0.071777344 -0.14550781 -0.031982422 0.009521484 -0.12109375 0.12109375 0.09765625 0.07763672 0.3203125 -0.22265625 -0.084472656 -0.107421875 0.11279297 -0.13867188 -0.21875 0.014587402 0.13378906 -0.009216309 0.009216309 0.16894531 0.16894531 -0.078125 -0.006652832 0.037353516 -0.10888672 -0.25390625 0.014526367 -0.09716797 -0.19628906 -0.017822266 -0.28125 -0.020507812 -0.029052734 -0.09375 -0.17675781 0.21484375 -0.052246094 -0.115722656 -0.01977539 -0.10839844 -0.013427734 -0.15332031 -0.140625 -0.11816406 0.092285156 0.109375 0.057617188 -0.03466797 0.03564453 -0.12011719 -0.14257812 -0.0007247925 -0.06689453 0.119140625 -0.10449219 0.07861328 -0.12792969 0.095703125 -0.008178711 0.07128906 0.20703125 -0.03149414 0.095703125 0.17285156 -0.079589844 -0.024291992 -0.07519531 -0.075683594 0.095214844 -0.064941406 -0.0068969727 -0.09033203 0.03100586 0.19921875 -0.10644531 -0.114746094 0.18652344 -0.05078125 0.0859375 0.0012893677 -0.18847656 -0.20019531 -0.028320312 0.11328125 0.25976562 0.22070312 0.041015625 0.0017166138 0.075683594 -0.011962891 0.017700195 -0.05883789 -0.25976562 -0.234375 -0.049560547 0.25976562 0.15332031 0.15136719 0.08300781 -0.15527344 0.049316406 0.07519531 -0.05078125 -0.1328125 -0.13574219 0.041992188 -0.14257812 0.020996094 0.07861328 0.016113281 0.016235352 -0.21582031 0.015991211 -0.048828125 -0.024047852 0.13476562 0.08496094 -0.011962891 0.100097656 -0.13867188 0.080566406 -0.22070312 -0.12011719 0.18945312 0.05444336 -0.05053711 0.0014724731 0.14160156 -0.064941406 -0.055664062 -0.09033203 -0.026733398 -0.10498047 0.024169922 0.014221191 0.1875 -0.16503906 0.015380859 -0.041748047 0.05444336 -0.01184082 -0.15625 0.0019302368 -0.06982422
even 0.036376953 -0.021484375 -0.03540039 0.15722656 -0.100097656 0.12060547 0.087402344 0.010070801 0.13085938 0.060058594 -0.08886719 -0.33007812 -0.09667969 0.029052734 -0.22363281 0.114746094 0.08642578 0.040527344 0.09765625 -0.0146484375 -0.019897461 -0.012512207 0.111328125 -0.11328125 0.05419922 -0.08984375 -0.17675781 0.012634277 -0.076171875 0.08984375 -0.048339844 0.13183594 -0.072753906 -0.01953125 0.037353516 -0.044921875 0.06640625 -0.03173828 0.11767578 0.014526367 0.20410156 -0.057861328 0.1875 -0.0099487305 -0.032226562 0.060058594 -0.12402344 0.11279297 0.0087890625 0.038330078 0.0030059814 -0.013671875 -0.107910156 0.05102539 0.053955078 0.07470703 0.08886719 -0.018554688 0.07519531 0.023925781 0.072753906 -0.0038146973 -0.08642578 -0.17285156 -0.14648438 -0.0071411133 -0.013366699 0.07373047 -0.14746094 0.072265625 -0.012268066 0.08544922 0.10839844 0.043701172 -0.2109375 -0.10644531 0.14550781 0.15332031 0.11767578 0.06640625 -0.040527344 -0.021484375 0.048339844 0.012084961 -0.23242188 0.04345703 -0.018188477 0.12792969 -0.03857422 -0.022216797 0.030029297 -0.0019989014 -0.12597656 -0.096191406 -0.0052490234 -0.072753906 0.12060547 0.055664062 0.0019989014 -0.040527344 -0.046875 -0.047851562 0.057373047 0.107910156 -0.109375 -0.12890625 0.011047363 0.007232666 -0.052490234 -0.063964844 -0.037841797 0.0095825195 0.024780273 0.0033416748 0.033447266 -0.00289917 0.123535156 -0.057128906 -0.00092315674 0.06640625 -0.10546875 0.064453125 -0.044677734 0.060058594 -0.10205078 0.036621094 0.072753906 0.044677734 -0.02734375 -0.016479492 0.08642578 -0.08105469 0.015258789 -0.026733398 0.055908203 -0.092285156 0.059814453 0.007507324 -0.088378906 -0.028564453 -0.060546875 -0.27929688 -0.028686523 -0.041503906 0.22070312 -0.05029297 -0.03930664 -0.119628906 -0.056884766 0.10644531 -0.07080078 0.057373047 -0.18261719 -0.053466797 -0.038085938 -0.08154297 -0.16699219 0.07714844 -0.115722656 0.072265625 0.10644531 0.06347656 -0.007873535 0.048828125 -0.056396484 -0.13085938 -0.0079956055 -0.0026397705 -0.109375 -0.03955078 -0.068359375 -0.008850098 -0.12207031 -0.103515625 -0.115722656 0.043701172 -0.095214844 -0.20996094 0.0546875 -0.030273438 -0.03955078 -0.09423828 -0.017089844 0.024169922 -0.02331543 0.024780273 -0.008239746 -0.08642578 -0.024047852 -0.016479492 0.13378906 -0.038085938 0.107910156 -0.048828125 -0.067871094 -0.021362305 -0.096191406 -0.059326172 0.020141602 -0.15039062 -0.064453125 0.055419922 -0.008972168 -0.007507324 0.21777344 -0.05859375 -0.118652344 -0.13085938 -0.09863281 -0.0134887695 -0.0058288574 0.03955078 -0.0012130737 0.036621094 -0.26171875 0.01965332 0.15039062 0.006713867 -0.2265625 0.040527344 0.03149414 0.06933594 -0.021728516 0.02368164 0.09765625 -0.080566406 0.05444336 0.10595703 0.13378906 -0.0018157959 0.079589844 0.080078125 0.11230469 0.05126953 0.057373047 0.08251953 0.0025787354 -0.23046875 0.07861328 0.0014419556 0.01586914 -0.04711914 0.064941406 -0.0859375 -0.040283203 0.03955078 0.01965332 0.0703125 0.010864258 0.0066833496 -0.02722168 -0.043945312 0.16796875 0.016235352 0.06689453 0.05810547 0.08886719 0.048095703 0.011962891 0.02758789 0.044677734 0.030395508 -0.09082031 0.09277344 0.041259766 0.15820312 -0.064941406 -0.012145996 0.021118164 -0.025878906 0.087890625 0.026611328 0.18164062 0.034179688 0.048828125 -0.14257812 -0.099609375 -0.072265625 -0.0625 -0.02746582 0.118652344 -0.07421875 0.05053711 0.009338379 -0.07421875 0.030639648 -0.16308594 -0.07910156 0.040527344 0.06298828 -0.028320312 -0.0069885254 -0.024047852 0.026245117 -0.010253906 0.04663086 0.0066223145 -0.087402344 0.051513672 0.017456055
one 0.045654297 -0.14550781 0.15625 0.16601562 0.10986328 0.007507324 0.07373047 -0.03100586 0.15722656 0.099609375 0.052001953 -0.1484375 0.064453125 0.11816406 -0.026489258 0.09033203 0.009643555 -0.123535156 -0.028564453 0.007232666 -0.064453125 0.08105469 -0.087402344 -0.040771484 0.018798828 0.08251953 -0.079589844 0.07910156 0.011047363 0.083496094 0.0018463135 0.076171875 0.048339844 0.010009766 0.009094238 0.007751465 0.024536133 -0.030395508 0.045898438 -0.026611328 0.10253906 -0.013916016 0.017456055 0.06347656 0.060058594 0.03955078 0.09863281 0.011291504 -0.08691406 -0.025634766 -0.05029297 0.05029297 0.014526367 0.002243042 -0.052978516 -0.008666992 0.030517578 0.012756348 0.056884766 0.07861328 0.030517578 0.09667969 0.0038604736 -0.20605469 -0.075683594 -0.008605957 -0.064453125 0.008483887 -0.05883789 0.12890625 0.014038086 0.087402344 0.064453125 -0.010559082 -0.048583984 -0.03149414 -0.02319336 0.13476562 0.068847656 0.0859375 0.09472656 -0.16308594 0.14648438 -0.08935547 -0.1171875 -0.08886719 -0.022827148 -0.025756836 -0.046142578 -0.07080078 0.075683594 0.13476562 -0.057617188 -0.057617188 -0.17773438 -0.059326172 0.1171875 0.041992188 -0.13574219 0.047851562 -0.063964844 -0.02709961 0.021118164 -0.008972168 -0.012207031 -0.011657715 0.110839844 0.0005645752 0.00031471252 -0.092285156 -0.099609375 -0.11279297 -0.029663086 0.032226562 0.16308594 0.060058594 0.06542969 -0.047851562 0.18554688 0.02734375 -0.22753906 -0.017456055 -0.12158203 0.04638672 -0.06542969 -0.12792969 0.06298828 -0.047851562 0.04663086 0.12695312 -0.03112793 -0.16894531 -0.018920898 -0.010070801 0.1015625 -0.14257812 -0.045166016 -0.09033203 -0.022949219 0.08544922 0.11621094 -0.17480469 0.10058594 0.024414062 0.25390625 0.11621094 -0.037841797 -0.0234375 -0.08544922 -0.040039062 -0.064453125 -0.0138549805 -0.12890625 0.041503906 -0.084472656 0.040771484 -0.08642578 -0.15625 -0.004333496 -0.017089844 -0.18261719 -0.018188477 0.06347656 -0.0054016113 -0.02319336 -0.0066223145 0.07910156 -0.06933594 -0.1328125 -0.060058594 -0.18359375 -0.025756836 -0.008422852 -0.27734375 -0.03125 -0.09716797 0.015380859 -0.08203125 -0.025268555 -0.0008354187 0.041992188 -0.08642578 -0.016845703 0.08300781 -0.06738281 0.071777344 -0.0048828125 0.022094727 0.072753906 0.003250122 0.025756836 -0.015136719 0.049316406 -0.07470703 -0.079589844 -0.010498047 -0.034179688 0.060546875 -0.16894531 -0.20605469 0.04711914 0.10986328 0.034179688 0.078125 -0.11425781 -0.049072266 -0.10253906 -0.040771484 0.059814453 -0.04248047 0.09326172 0.12792969 -0.07128906 0.018676758 -0.032714844 0.08544922 -0.0050964355 -0.045898438 -0.14355469 0.067871094 0.029174805 0.05053711 0.0039367676 -0.061767578 0.12988281 -0.018432617 0.13574219 0.087890625 0.061279297 0.018310547 -0.042236328 0.011779785 0.06201172 0.092285156 0.1015625 0.0047302246 0.020751953 -0.10058594 -0.039794922 0.020751953 0.044433594 -0.020385742 -0.044921875 -0.20605469 0.123046875 0.0013656616 0.015625 -0.04663086 0.07080078 -0.046142578 -0.06738281 -0.076660156 0.03149414 0.005004883 0.0020446777 0.072753906 0.033935547 0.04736328 -0.026123047 -0.15039062 -0.03515625 -0.018676758 -0.091796875 -0.035888672 0.07714844 0.095214844 0.06591797 0.106933594 -0.18847656 0.050048828 0.06640625 -0.0059509277 -0.033203125 0.008850098 0.13183594 -0.0859375 -0.19726562 -0.12695312 -0.017700195 -0.125 -0.043701172 0.021118164 0.03149414 0.095214844 -0.017944336 -0.083496094 -0.13671875 -0.07519531 -0.014282227 0.07373047 -0.028930664 -0.013000488 -0.060302734 -0.032714844 -0.103515625 0.044677734 -0.095214844 -0.01586914 0.006713867 -0.0018844604
back 0.07470703 0.016357422 0.087890625 0.15527344 0.009765625 -0.15234375 -0.046142578 -0.26367188 0.10205078 0.16894531 0.0041503906 -0.049804688 0.099121094 0.12011719 -0.22851562 -0.09375 0.15625 0.19628906 0.068847656 -0.11376953 0.118652344 0.16503906 0.1171875 0.030517578 0.004486084 0.18164062 0.10595703 -0.022216797 0.13476562 -0.07519531 0.032714844 0.09472656 -0.08642578 0.068847656 -0.14453125 -0.17773438 0.047607422 -0.06640625 -0.061767578 0.21777344 0.040039062 -0.21191406 0.28320312 -0.08886719 0.006866455 0.16015625 -0.13964844 0.04711914 0.22265625 -0.068359375 -0.009155273 0.096191406 -0.14257812 -0.10449219 -0.1015625 -0.04248047 0.038330078 0.056640625 0.10253906 -0.10888672 -0.036865234 -0.020507812 -0.1640625 -0.036865234 -0.072753906 -0.080078125 0.06933594 0.17578125 0.041503906 0.20214844 0.10498047 0.0067749023 0.12890625 0.09716797 -0.1953125 0.049804688 0.13867188 0.022705078 -0.107421875 -0.030639648 0.040283203 -0.044677734 0.1953125 -0.14550781 0.16210938 -0.029418945 -0.18847656 0.03881836 0.06738281 0.076171875 0.012329102 0.265625 -0.0036315918 -0.27734375 0.017211914 -0.04711914 0.099609375 0.07763672 -0.06201172 -0.015075684 -0.16894531 -0.20996094 0.12597656 0.06640625 -0.059570312 -0.076171875 -0.017944336 0.04248047 0.048583984 -0.07080078 0.03515625 0.21679688 0.08544922 -0.036376953 -0.042236328 -0.003967285 -0.0040283203 0.1484375 0.0008087158 0.123535156 -0.16992188 -0.05810547 -0.011352539 0.1015625 -0.07128906 -0.087402344 -0.14648438 -0.06225586 -0.055908203 0.04638672 -0.06982422 -0.29101562 -0.07861328 -0.16308594 -0.17382812 -0.063964844 0.052978516 0.025878906 -0.1328125 0.140625 -0.076660156 -0.15039062 0.10107422 0.05053711 -0.10644531 0.05859375 -0.19042969 -0.076171875 -0.16992188 0.13183594 0.171875 0.052978516 -0.1640625 0.23339844 0.0067443848 0.07080078 0.018310547 0.16796875 0.104003906 -0.13183594 -0.026123047 -0.020019531 0.13671875 -0.09326172 0.08642578 -0.22070312 -0.050048828 -0.021606445 -0.0076904297 -0.068847656 -0.111816406 -0.11279297 0.034423828 0.091796875 0.03881836 0.016479492 0.099609375 -0.057128906 -0.060791016 0.032958984 -0.21777344 0.0234375 0.057861328 0.20507812 -0.047851562 0.015380859 -0.0036773682 0.125 0.13085938 -0.11669922 0.07861328 -0.018554688 0.11279297 -0.06201172 0.08251953 0.020507812 0.03930664 0.08984375 -0.006134033 -0.037841797 0.02734375 -0.026489258 0.103515625 0.0047912598 0.14550781 0.14550781 -0.16015625 -0.07470703 0.08935547 0.11328125 -0.15917969 0.203125 -0.109375 0.11669922 0.025756836 -0.005584717 0.060546875 -0.011047363 -0.055419922 -0.05883789 -0.06542969 0.033447266 -0.007171631 -0.017700195 0.036376953 -0.11425781 0.051513672 0.12695312 -0.095703125 -0.060791016 -0.013122559 -0.06933594 0.008728027 -0.05834961 -0.15527344 0.24902344 0.013916016 0.041748047 0.064453125 0.18652344 0.028442383 0.005218506 -0.23339844 -0.23730469 -0.040527344 0.0044555664 -0.064453125 0.01574707 0.24121094 0.140625 0.060058594 -0.017944336 -0.075683594 -0.07714844 -0.087402344 -0.028808594 -0.017822266 0.032958984 -0.17089844 0.030517578 0.0008239746 0.122558594 -0.18359375 0.1640625 0.16308594 -0.018188477 0.014099121 -0.022949219 0.068847656 -0.067871094 0.05102539 0.083984375 0.22070312 -0.11621094 0.18945312 -0.067871094 -0.06738281 -0.28515625 -0.06689453 -0.07373047 0.07763672 -0.17773438 -0.12207031 -0.009765625 -0.024169922 0.072265625 -0.29101562 0.06542969 0.07080078 0.028442383 -0.04296875 0.23144531 -0.087890625 0.06982422 -0.13378906 0.16113281 -0.00027275085 -0.045654297 0.0138549805 -0.083984375
love 0.103027344 -0.15234375 0.025878906 0.16503906 -0.16503906 0.06689453 0.29296875 -0.26367188 -0.140625 0.20117188 -0.026245117 -0.08203125 -0.027709961 -0.043945312 -0.23535156 0.16992188 0.12890625 0.15722656 0.0075683594 -0.06982422 -0.03857422 0.079589844 0.22949219 -0.14355469 0.16796875 -0.03515625 0.05517578 0.106933594 0.111816406 -0.16308594 -0.111816406 0.13964844 0.015563965 0.12792969 0.15429688 0.07714844 0.26171875 0.08642578 -0.025146484 0.33398438 0.18652344 -0.20996094 0.07080078 0.026000977 -0.10644531 -0.10253906 0.123046875 0.04711914 0.022094727 0.05834961 -0.10986328 0.14941406 -0.106933594 0.015563965 0.08984375 0.11230469 -0.043701172 -0.11376953 -0.0037384033 -0.018188477 0.24316406 0.084472656 -0.07080078 0.18066406 0.03515625 -0.09667969 -0.21972656 -0.0032806396 -0.031982422 0.18457031 0.28515625 -0.0859375 -0.111816406 0.021362305 -0.30664062 -0.092285156 -0.18945312 0.015136719 0.18554688 0.34375 -0.31054688 0.22558594 0.087402344 -0.2265625 -0.29492188 0.08251953 -0.38476562 0.25390625 0.26953125 0.06298828 -0.0095825195 0.23632812 -0.17871094 -0.12451172 -0.17285156 -0.11767578 0.19726562 -0.03466797 -0.104003906 -0.1640625 -0.19726562 0.19824219 0.095214844 0.0056152344 0.12597656 0.0007362366 -0.040283203 -0.030639648 0.016235352 -0.1640625 -0.22167969 0.171875 0.12011719 -0.01965332 0.4453125 0.064941406 0.059326172 -0.1640625 -0.013671875 0.18945312 0.055664062 -0.050048828 -0.014221191 0.15917969 0.07421875 -0.31640625 -0.053466797 -0.02355957 -0.16992188 0.0625 -0.140625 -0.13183594 -0.12792969 0.12060547 0.05883789 -0.0005569458 0.057617188 -0.084472656 0.16992188 0.13671875 -0.09375 0.080566406 -0.040039062 -0.037597656 -0.26367188 0.0066223145 -0.01928711 0.09423828 -0.13183594 -0.27929688 0.27734375 0.31835938 0.10058594 0.11425781 -0.27734375 0.11035156 -0.06982422 -0.0859375 -0.111328125 -0.27929688 -0.07763672 0.05102539 -0.061767578 0.44921875 0.018676758 -0.15039062 0.13671875 -0.15039062 -0.2265625 0.119140625 0.060058594 -0.0390625 -0.10839844 0.029052734 0.02331543 0.13183594 0.010009766 0.03149414 -0.12597656 -0.13671875 -0.30664062 -0.28515625 0.09863281 -0.005645752 -0.083984375 -0.16015625 -0.14453125 -0.18261719 0.100097656 0.04345703 0.10644531 0.16503906 0.06298828 0.17578125 0.15820312 0.125 0.171875 -0.056640625 -0.09033203 -0.21289062 -0.0390625 -0.033203125 -0.18652344 -0.18945312 -0.018188477 -0.030517578 -0.17675781 0.15234375 0.01953125 0.016967773 -0.10839844 0.18066406 0.0049743652 -0.11621094 -0.19824219 -0.19140625 0.21386719 0.08984375 -0.16308594 -0.003250122 -0.07128906 0.08251953 0.021606445 0.10107422 -0.29101562 -0.047851562 -0.033691406 -0.14453125 -0.063964844 -0.12451172 -0.24804688 0.09277344 0.011657715 0.24707031 0.3828125 0.024291992 -0.122558594 0.0025939941 -0.015625 0.0054016113 0.04736328 -0.007446289 -0.18261719 0.21972656 -0.16601562 0.359375 0.052978516 -0.038085938 -0.104003906 -0.18457031 0.07470703 0.2734375 0.28320312 0.15234375 0.05126953 -0.15429688 -0.15722656 -0.21582031 -0.19824219 0.099609375 -0.091796875 0.07519531 -0.024414062 0.17382812 -0.11279297 0.0021972656 0.07470703 -0.023071289 0.08642578 0.16601562 0.07763672 0.14746094 0.15429688 0.11425781 0.14550781 -0.24023438 -0.2109375 0.07421875 -0.14746094 -0.08642578 0.16113281 -0.07128906 0.109375 0.17675781 0.18554688 -0.15820312 -0.2265625 0.15039062 -0.08544922 0.091308594 -0.031982422 0.13476562 -0.15136719 -0.42773438 -0.034423828 -0.27929688 0.125 -0.19824219 -0.123046875 0.064941406
want 0.13671875 0.1484375 0.114746094 0.06982422 -0.16699219 -0.006286621 0.3515625 -0.07910156 -0.084472656 0.021972656 -0.09472656 -0.09472656 -0.001953125 -0.041259766 -0.13964844 0.17773438 0.06347656 0.22753906 0.08203125 -0.088378906 -0.18847656 -0.033691406 0.095703125 0.087890625 0.10986328 0.09716797 7.9631805e-05 0.075683594 0.0073242188 -0.123535156 0.103027344 0.16503906 -0.038330078 -0.22460938 0.08984375 0.06933594 0.19628906 0.07763672 -0.039794922 0.099609375 0.041748047 -0.15332031 0.16601562 0.015625 -0.19921875 -0.17675781 0.083984375 0.024658203 -0.080078125 -0.12695312 -0.20214844 0.084472656 0.021118164 0.15332031 0.10986328 0.083984375 -0.04345703 0.041259766 0.18652344 -0.050048828 0.071777344 0.10253906 -0.25585938 0.044677734 -0.0008544922 -0.053955078 -0.140625 0.2734375 0.008911133 -0.025512695 0.15136719 0.2578125 0.123046875 -0.037597656 -0.34375 -0.24511719 0.14453125 0.20703125 0.07861328 0.119140625 -0.049072266 0.053955078 0.1640625 0.13378906 -0.1328125 -0.028320312 -0.15625 0.19824219 0.11035156 0.022460938 0.07763672 0.02722168 -0.26171875 -0.2265625 -0.06298828 -0.22558594 0.18359375 0.20019531 -0.119140625 0.08544922 -0.17773438 0.10253906 -0.119628906 0.14746094 -0.13574219 0.068359375 -0.056396484 -0.076660156 0.119628906 0.04663086 -0.36328125 -0.07324219 -0.13867188 -0.024780273 0.076171875 -0.056884766 -0.0072631836 -0.22460938 -0.037353516 0.05859375 0.0013427734 0.13085938 0.013244629 0.25976562 0.036621094 -0.23144531 -0.1953125 -0.23144531 -0.13867188 -0.17675781 -0.063964844 -0.08300781 -0.08496094 0.10449219 0.09277344 -0.24511719 -0.0007095337 0.087402344 0.13378906 0.20800781 -0.02758789 -0.20214844 0.07128906 -0.14160156 0.068359375 0.087402344 0.036621094 -0.328125 0.10546875 -0.14355469 0.047851562 0.15429688 -0.053710938 -0.119628906 0.042236328 0.06689453 -0.053466797 0.047607422 -0.11328125 0.008300781 0.03564453 0.11230469 0.041015625 0.12451172 0.2109375 -0.14160156 0.022094727 -0.10253906 0.123535156 -0.17675781 -0.22070312 -0.030273438 -0.08496094 -0.0050964355 -0.06689453 -0.063964844 0.20214844 0.079589844 -0.10205078 0.18554688 -0.17089844 -0.091796875 0.12890625 0.048095703 -0.036865234 -0.21289062 -0.08154297 -0.036621094 0.28320312 0.09716797 0.07373047 0.03515625 0.1875 0.045654297 0.23925781 -0.09033203 0.076660156 0.12597656 -0.040771484 -0.2578125 0.11621094 0.19726562 -0.048339844 -0.09326172 -0.09863281 0.10107422 -0.013793945 0.007537842 0.11230469 -0.07373047 -0.032470703 0.2421875 0.020996094 0.092285156 -0.19042969 0.039794922 0.067871094 0.01977539 -0.14941406 -0.07128906 -0.15234375 -0.18066406 -0.26757812 -0.059814453 -0.03173828 0.006011963 0.16308594 0.045898438 -0.09814453 0.064941406 0.014831543 -0.140625 -0.09667969 0.13574219 0.14453125 0.06689453 -0.06225586 -0.022216797 0.20800781 -0.02319336 0.033691406 0.008544922 0.05517578 -0.017822266 -0.083496094 0.100097656 0.011047363 0.23144531 -0.018798828 -0.08300781 -0.072265625 0.087402344 0.28515625 0.044921875 0.06201172 -0.052490234 0.022338867 -0.008666992 -0.09423828 -0.03125 -0.26171875 0.123535156 -0.140625 0.19042969 -0.020996094 0.15527344 -0.024536133 0.04711914 -0.123046875 0.08496094 0.20117188 0.29882812 0.35742188 0.21972656 -0.07714844 -0.17382812 0.06689453 -0.10644531 -0.20117188 -0.01928711 -0.09716797 -0.13671875 -0.038085938 0.25195312 -0.13085938 0.043701172 0.0057678223 0.04638672 0.08984375 -0.063964844 -0.12011719 0.095214844 -0.03491211 -0.038085938 -0.07763672 -0.055664062 0.11035156 -0.18261719 0.044433594 -0.041748047
fresh -0.042236328 0.018066406 0.22070312 -0.014465332 -0.15234375 0.043701172 -0.087890625 -0.08251953 -0.08935547 0.15234375 -0.107421875 0.087402344 -0.041503906 0.16308594 -0.359375 -0.099609375 -0.08251953 0.078125 -0.04296875 -0.08105469 0.025512695 0.053955078 -0.048339844 -0.05493164 -0.119140625 -0.17382812 0.16796875 0.24609375 0.032470703 0.07763672 -0.01965332 0.12695312 0.013244629 -0.08935547 -0.15917969 -0.203125 -0.0067749023 -0.31835938 -0.111816406 0.039794922 0.0054016113 -0.43164062 -0.03173828 0.052001953 0.13183594 -0.15234375 0.024780273 0.15039062 0.23535156 0.203125 0.14257812 -0.083496094 -0.056152344 0.16308594 -0.13085938 0.034179688 0.23339844 -0.12988281 0.011352539 -0.37109375 -0.09375 -0.051757812 -0.07324219 -0.037353516 0.23046875 -0.084472656 0.049072266 -0.088378906 0.059814453 0.0032196045 0.044921875 -0.03466797 0.15332031 0.03540039 -0.14257812 0.045166016 -0.011169434 0.19042969 -0.16308594 0.18847656 0.076171875 -0.026123047 0.0049438477 0.041992188 0.203125 -0.19628906 -0.37890625 0.20410156 0.01586914 0.32226562 0.0049438477 0.19921875 -0.1796875 -0.115234375 -0.17675781 -0.044921875 0.019042969 0.22167969 0.07910156 -0.100097656 -0.03149414 0.036621094 0.12060547 -0.11328125 -0.2578125 -0.25390625 0.33007812 -0.118652344 0.11230469 -0.061767578 -0.034179688 0.15820312 -0.018310547 -0.028686523 0.25195312 -0.029663086 0.05859375 0.13574219 0.041015625 0.08251953 -0.13671875 0.064453125 0.0029754639 0.06298828 -0.088378906 -0.06933594 0.16992188 0.008544922 -0.10058594 0.11425781 -0.21679688 0.0057678223 -0.095703125 0.13476562 -0.14746094 0.11669922 0.31054688 -0.1328125 0.06982422 -0.08691406 0.0119018555 -0.13378906 -0.026611328 -0.060546875 -0.05810547 -0.125 -0.14746094 -0.059570312 0.0546875 0.0021514893 -0.07080078 -0.030029297 0.041503906 0.09326172 0.017211914 -0.19921875 0.03100586 -0.26953125 0.0047302246 0.059326172 -0.20507812 -0.095214844 0.033935547 0.0057678223 0.21191406 -0.15917969 0.07470703 0.060302734 0.24121094 -0.13769531 -0.21484375 0.028930664 0.002960205 -0.100097656 0.031982422 -0.10839844 -0.06689453 -0.12451172 0.020629883 0.12597656 -0.27929688 0.053466797 0.016235352 -0.19628906 -0.24414062 0.10644531 -0.049560547 0.052978516 -0.079589844 -0.036132812 -0.21777344 0.01928711 0.025146484 -0.08496094 0.059326172 -0.046875 -0.27148438 0.021484375 -0.31445312 -0.021118164 -0.084472656 -0.03173828 -0.06542969 0.04248047 0.10107422 0.111816406 -0.08300781 -0.038330078 0.24902344 -0.14453125 -0.4375 0.10253906 -0.037597656 0.18652344 0.08154297 -0.122558594 0.14453125 -0.10986328 -0.040527344 0.1015625 0.10644531 0.109375 0.007446289 0.17285156 0.20410156 0.14257812 -0.38085938 0.041503906 -0.06738281 0.15332031 -0.203125 -0.018920898 0.088378906 0.24609375 -0.13867188 -0.017700195 -0.026489258 0.06298828 -0.080566406 0.16992188 0.16503906 -0.067871094 -0.10205078 0.16113281 -0.048583984 0.0625 -0.005340576 -0.15820312 0.025390625 0.15039062 0.02355957 0.14453125 -0.078125 0.095214844 0.064453125 -0.14355469 0.1953125 0.036376953 -0.022705078 -0.07763672 0.12402344 0.104003906 -0.18554688 -0.025268555 0.13867188 0.03149414 -0.23925781 -0.0031280518 0.029174805 -0.15136719 0.19042969 0.14355469 0.36523438 -0.02746582 0.016479492 0.14160156 0.06298828 -0.0703125 0.17578125 0.19433594 -0.296875 0.060302734 0.0064697266 0.045166016 -0.079589844 0.09472656 -0.21679688 0.15332031 -0.075683594 0.20898438 -0.17871094 -0.22753906 -0.0859375 0.14160156 -0.010131836 0.091308594 -0.012023926 -0.025512695 0.02734375 -0.064941406
get 0.033203125 -0.08984375 -0.29492188 0.115234375 -0.07128906 -0.053955078 0.010498047 0.119140625 0.024536133 0.080078125 -0.15039062 -0.19042969 0.047851562 0.17089844 -0.12695312 0.043945312 0.047607422 0.15722656 0.17089844 0.06201172 -0.10644531 0.107910156 0.2734375 0.019897461 0.20996094 -0.057373047 -0.037109375 -0.12060547 0.122558594 -0.045898438 -0.04663086 0.083496094 -0.171875 -0.005004883 0.15234375 -0.12890625 0.032958984 -0.014099121 0.11669922 0.11669922 0.07763672 -0.13574219 0.11816406 -0.016479492 -0.16308594 -0.17578125 -0.08544922 -0.05444336 0.044921875 0.11425781 -0.13183594 0.2265625 0.061279297 -0.043701172 -0.013366699 0.06542969 0.050048828 0.0044555664 -0.06982422 -0.087890625 0.13769531 -0.04663086 -0.17480469 0.018188477 0.016601562 0.060058594 -0.00970459 0.009155273 -0.06933594 0.14355469 0.19140625 0.18261719 0.10595703 -0.08935547 -0.19238281 -0.04663086 0.088378906 0.23730469 0.02355957 0.15039062 -0.033691406 0.031982422 0.13671875 0.17871094 0.10888672 0.11621094 -0.14648438 0.15625 -0.037841797 0.0030212402 -0.0067443848 0.2109375 -0.041259766 -0.15332031 -0.123535156 -0.16601562 0.30273438 0.20800781 0.16015625 0.016479492 -0.14160156 -0.18652344 -0.024780273 0.049560547 -0.17871094 -0.10839844 -0.14746094 -0.08691406 0.21191406 0.114746094 0.020263672 0.009765625 -0.018920898 -0.15917969 0.071777344 0.115722656 0.17382812 -0.027954102 0.1640625 -0.04296875 -0.084472656 -0.031982422 -0.107421875 0.31640625 0.12451172 0.07470703 -0.12988281 -0.103515625 0.018920898 -0.067871094 0.09033203 -0.17382812 -0.030273438 -0.071777344 0.03491211 -0.05029297 0.10205078 0.18652344 -0.092285156 0.044921875 -0.0074157715 -0.053222656 -0.08203125 -0.038085938 0.03564453 -0.012145996 -0.13574219 -0.45898438 -0.12695312 -0.09423828 0.125 0.09814453 -0.18164062 0.10644531 -0.07128906 -0.10058594 0.119628906 -0.14746094 -0.19433594 0.09277344 0.071777344 -0.0625 -0.07080078 -0.022094727 0.08886719 -0.2734375 -0.037841797 -0.19628906 0.10888672 -0.18554688 -0.3125 -0.104003906 -0.076171875 0.06542969 -0.103515625 0.0067749023 0.21777344 -0.111816406 0.015380859 0.25390625 0.026123047 -0.07470703 0.08642578 0.25585938 -0.13085938 -0.07080078 0.03540039 -0.056152344 0.053955078 -0.10449219 0.20214844 -0.11425781 0.075683594 -0.064941406 0.048095703 -0.10058594 -0.049560547 -0.18261719 -0.19335938 -0.038330078 0.033691406 0.076171875 -0.09472656 0.027709961 0.15429688 -0.045898438 -0.16699219 -0.09716797 0.10498047 -0.018676758 -0.020751953 0.16210938 0.049072266 0.14355469 -0.20605469 0.064941406 0.06933594 -0.0056152344 0.06347656 -0.15039062 -0.16796875 -0.23730469 0.13476562 0.078125 0.15722656 0.06689453 0.119628906 0.119140625 -0.0119018555 -0.07470703 0.18164062 -0.06738281 0.115234375 0.140625 0.096191406 0.16894531 -0.041503906 -0.087402344 0.11328125 0.004119873 0.13867188 0.14257812 -0.051757812 -0.15820312 0.10839844 0.044677734 -0.08105469 0.125 -0.08935547 0.0045166016 -0.029907227 0.0072021484 0.017700195 0.05883789 0.09667969 0.16015625 0.014282227 0.0039978027 -0.076171875 -0.12011719 -0.12402344 -0.20214844 -0.12695312 0.080078125 0.15332031 0.125 0.14257812 -0.055419922 -0.0625 0.0057678223 -0.014343262 0.24414062 0.27148438 0.10253906 0.029174805 -0.071777344 -0.068847656 -0.29101562 -0.076171875 -0.13378906 0.08496094 -0.171875 0.053710938 0.15527344 -0.047851562 0.039794922 -0.11425781 -0.04321289 0.036132812 -0.005584717 -0.021728516 0.18261719 -0.08691406 0.09667969 -0.012512207 0.075683594 0.004272461 -0.12695312 0.16113281 -0.16015625
eat -0.15722656 -0.107421875 -0.03149414 0.47851562 -0.20507812 0.16503906 0.20019531 0.008605957 -0.119140625 0.234375 -0.020996094 -0.08544922 -0.05517578 0.14453125 -0.18457031 0.22070312 -0.0061035156 0.104003906 0.036376953 -0.018554688 -0.0859375 0.055419922 0.28125 0.19628906 -0.07910156 -0.2734375 -0.038330078 -0.072265625 -0.11230469 0.0035095215 -0.067871094 0.23730469 -0.087890625 -0.14160156 -0.047851562 -0.17871094 0.14648438 -0.125 -0.05834961 0.24804688 -0.020629883 -0.22070312 0.1875 0.13964844 0.032470703 -0.019165039 -0.15429688 -0.055419922 -0.20507812 0.103515625 -0.11035156 -0.055419922 0.032958984 -0.12158203 -0.02355957 -0.375 0.12695312 -0.21679688 -0.037109375 0.009887695 0.031982422 0.14746094 -0.15722656 0.14257812 0.31835938 -0.15234375 -0.27929688 0.11230469 0.103027344 -0.032714844 0.2734375 0.056640625 0.13867188 -0.0074768066 -0.21484375 -0.47851562 -0.5625 -0.020507812 -0.03930664 0.119628906 -0.09277344 -0.09033203 0.20996094 0.122558594 -0.33007812 -0.091308594 -0.008911133 0.34765625 -0.04736328 -0.13476562 -0.12451172 -0.078125 -0.067871094 -0.17871094 0.0040283203 -0.26757812 0.28125 0.110839844 0.084472656 -0.13085938 -0.084472656 -0.08886719 0.071777344 0.1796875 -0.059570312 -0.37109375 -0.083984375 -0.16796875 -0.24609375 -0.04736328 -0.15136719 -0.32421875 0.060302734 -0.14648438 0.07763672 -0.08300781 0.21289062 -0.2265625 -0.203125 0.07861328 -0.05517578 0.026611328 -0.103027344 0.08300781 -0.13964844 0.09033203 -0.020874023 0.060791016 -0.021850586 0.10205078 -0.1796875 0.12988281 0.061767578 0.2578125 -0.09863281 0.28515625 0.24707031 0.17285156 0.19921875 0.12988281 0.10644531 -0.072753906 -0.19921875 -0.27929688 -0.05834961 -0.020996094 0.0234375 -0.12792969 -0.016113281 -0.12792969 0.026977539 0.075683594 -0.114746094 0.0022888184 -0.06225586 -0.008056641 0.0049438477 -0.19140625 -0.19726562 -0.04663086 0.0075683594 0.23828125 -0.037109375 0.06933594 0.064941406 -0.20800781 0.026123047 0.05908203 0.24316406 -0.18945312 -0.61328125 0.032226562 0.013000488 0.33007812 -0.07714844 -0.01965332 0.27148438 0.2109375 -0.020385742 0.15527344 -0.09472656 -0.29101562 0.14453125 0.0069885254 0.14550781 -0.30859375 0.076171875 -0.06982422 -0.08154297 -0.026123047 0.078125 -0.0039367676 -0.030883789 0.05908203 0.0001707077 0.19042969 0.091308594 -0.1640625 -0.34570312 -0.080566406 -0.028076172 -0.0013122559 -0.29296875 -0.12060547 -0.06347656 -0.06298828 0.061279297 0.05078125 -0.012023926 -0.30664062 -0.21191406 0.20507812 0.01977539 0.11376953 -0.10546875 0.2734375 0.16113281 -0.12451172 -0.036865234 -0.15917969 -0.06542969 0.07080078 0.1328125 0.02709961 0.11425781 -0.021850586 -0.0016937256 0.020263672 0.033691406 0.000333786 0.28125 -0.17773438 -0.067871094 -0.029541016 0.32421875 -0.10888672 0.071777344 0.15234375 -0.12792969 -0.14746094 0.07861328 0.0134887695 -0.0021362305 -0.20605469 0.18847656 -0.025512695 0.076660156 0.006500244 0.09082031 0.0126953125 0.14550781 0.03564453 0.17578125 -0.12890625 -0.021484375 -0.36523438 -0.30078125 -0.23339844 -0.15625 -0.030273438 -0.10253906 0.03540039 -0.18261719 0.12597656 -0.002746582 -0.09082031 -0.25 0.0859375 0.021484375 0.028198242 -0.06689453 0.31054688 0.33398438 0.052978516 0.106933594 -0.22363281 -0.26171875 -0.049560547 -0.041503906 -0.27539062 0.104003906 0.049072266 0.12060547 0.07910156 -0.21484375 -0.0119018555 -0.05126953 0.34960938 -0.07324219 0.26953125 -0.019897461 0.083984375 -0.011779785 0.26367188 -0.103027344 -0.048583984 -0.22167969 -0.048339844 0.20996094 -0.051757812
hot -0.007507324 0.008178711 0.07373047 0.0859375 -0.044189453 -0.13769531 0.096191406 -0.20019531 -0.20214844 0.19433594 0.037109375 -0.15429688 0.13085938 -0.08203125 -0.10058594 0.15625 0.05908203 -0.18261719 0.06347656 -0.20410156 0.018432617 0.13671875 -0.10205078 -0.09667969 -0.05493164 0.10107422 0.031982422 0.099609375 -0.1484375 0.041748047 0.080078125 0.171875 0.22460938 -0.12695312 -0.22460938 -0.12207031 -0.11816406 0.028686523 0.14453125 -0.07324219 0.060791016 -0.41210938 0.028198242 -0.1015625 0.015625 -0.20605469 0.109375 -0.07421875 0.20703125 0.08544922 0.13574219 0.421875 -0.07763672 0.1953125 -0.25390625 0.0546875 0.30664062 -0.03173828 0.09814453 0.030151367 -0.09716797 0.005432129 -0.26367188 -0.09375 0.14355469 0.041503906 -0.3125 -0.50390625 0.0012741089 0.049560547 0.30273438 0.100097656 0.22753906 0.20410156 -0.19140625 -0.123535156 0.21875 0.11669922 -0.16601562 0.35546875 0.03466797 -0.028198242 0.23242188 0.0032653809 -0.15917969 0.15527344 -0.16796875 0.14648438 -0.024047852 0.052734375 -0.10888672 0.088378906 -0.16015625 -0.12695312 -0.09472656 0.111816406 0.18945312 -0.12597656 0.27148438 0.028930664 -0.09472656 -0.14746094 -0.099121094 -0.036376953 -0.040039062 -0.27148438 0.110839844 -0.19335938 0.009094238 -0.08300781 0.09326172 -0.16992188 -0.10058594 -0.1640625 0.20117188 0.006225586 0.2578125 0.02746582 0.004760742 -0.12792969 -0.19921875 -0.20410156 -0.02355957 -0.21777344 -0.28515625 -0.01361084 -0.061523438 0.29882812 0.036376953 -0.17871094 0.13476562 -0.060546875 0.071777344 0.10107422 -0.114746094 -0.010375977 0.28515625 -0.21289062 0.119628906 -0.07763672 0.068847656 0.18554688 0.28320312 -0.11767578 0.25 -0.024169922 0.05419922 -0.076660156 -0.05444336 -0.16992188 0.13964844 0.04272461 -0.14453125 0.20996094 -0.20605469 -0.029663086 -0.063964844 -0.24804688 -0.07080078 -0.22753906 -0.072265625 0.04663086 0.019897461 -0.011291504 0.060546875 0.203125 -0.043945312 0.02709961 -0.03491211 -0.17480469 -0.21972656 0.040039062 0.11279297 0.044433594 -0.22265625 0.049072266 -0.10498047 0.045898438 -0.4296875 0.020019531 0.09033203 -0.30664062 0.038330078 -0.103027344 0.13574219 -0.09716797 -0.079589844 0.17773438 -0.10107422 0.203125 0.05810547 0.07910156 0.13085938 0.14355469 -0.19042969 0.40234375 -0.24023438 -0.13476562 -0.05126953 -0.10449219 0.1953125 0.05834961 -0.03930664 -0.18261719 0.029907227 -0.15332031 -0.05029297 -0.19042969 0.0018386841 0.023925781 -0.36328125 0.14453125 0.19042969 -0.028198242 0.31835938 0.03857422 0.25976562 -0.068847656 -0.18359375 -0.10253906 -0.14746094 0.16601562 -0.0859375 0.17675781 0.10253906 0.123535156 0.10888672 -0.19335938 -0.030761719 -0.15332031 -0.12451172 0.11035156 -0.09765625 0.056152344 -0.12402344 -0.064941406 -0.028686523 -0.21777344 0.09863281 0.24804688 0.30273438 0.11816406 -0.049804688 -0.05859375 0.037597656 0.022583008 0.10644531 -0.0078125 0.29101562 -0.068359375 -0.14257812 0.16113281 0.15527344 0.028808594 0.15625 -0.118652344 0.13574219 -0.11328125 -0.024536133 -0.24609375 0.08251953 0.004486084 -0.15625 0.18359375 0.13867188 -0.036621094 -0.036865234 -0.115234375 0.1484375 -0.11035156 0.17480469 0.15625 0.07421875 0.049560547 -0.07714844 0.088378906 -0.029663086 -0.25585938 -0.14941406 0.24023438 0.44726562 0.13476562 0.17675781 0.18261719 0.08886719 0.048583984 -0.12988281 0.21386719 -0.002029419 -0.24316406 0.29492188 -0.06298828 0.125 0.15039062 0.1796875 -0.25195312 -0.072265625 0.032470703 -0.11816406 0.07763672
know -0.05493164 -0.1171875 0.027832031 0.07470703 -0.19726562 0.09326172 0.18164062 -0.061767578 0.104003906 -0.068847656 -0.023071289 -0.15039062 -0.079589844 0.029785156 -0.17285156 0.2578125 0.033935547 0.25195312 -0.064941406 -0.10058594 -0.14257812 0.032226562 0.16601562 -0.13183594 0.22949219 0.046875 0.009521484 -0.123046875 0.08203125 -0.24707031 -0.13378906 0.109375 -0.012878418 -0.033691406 0.0012893677 0.041748047 0.08251953 -0.006500244 0.05078125 0.21386719 0.04248047 -0.060302734 0.23339844 -0.12158203 -0.13671875 -0.045654297 -0.068359375 -0.05078125 -0.055419922 0.03515625 -0.06201172 0.140625 -0.045166016 -0.15136719 -0.025268555 0.053222656 -0.056396484 -0.07910156 0.16210938 0.02758789 -0.057373047 0.049072266 -0.087402344 -0.025024414 0.12695312 -0.14550781 -0.07080078 0.018554688 -0.08154297 0.036621094 0.118652344 0.19824219 0.08886719 0.018310547 -0.26757812 -0.09716797 0.012451172 0.15136719 0.0625 0.27929688 -0.0859375 -0.038085938 0.14355469 0.08203125 -0.25 -0.09033203 -0.23339844 0.17773438 0.028808594 -0.09716797 -0.029296875 0.055664062 -0.19824219 -0.072753906 -0.009643555 -0.17285156 0.13671875 0.021728516 -0.07763672 -0.040283203 -0.19238281 -0.045654297 0.0043029785 0.13867188 -0.040039062 -0.09814453 -0.12060547 -0.046875 0.07128906 -0.057861328 -0.039794922 -0.06591797 -0.0546875 0.02709961 -0.056152344 -0.05102539 0.08935547 -0.110839844 -0.016235352 -0.05834961 -0.24902344 0.08154297 -0.14160156 0.28710938 -0.01928711 -0.087402344 -0.21289062 -0.01574707 -0.09423828 -0.13378906 -0.08642578 -0.28710938 -0.11425781 -0.061767578 0.2109375 -0.22558594 0.123535156 0.19042969 0.03491211 0.099609375 0.020507812 0.002029419 -0.038330078 -0.16503906 0.014404297 0.10107422 0.091308594 -0.26953125 0.01159668 -0.107910156 0.028198242 0.14941406 -0.20605469 0.032714844 -0.040283203 0.05517578 -0.13378906 -0.008178711 -0.028808594 0.06298828 0.11328125 0.19140625 -0.059570312 0.084472656 0.16992188 -0.12988281 -0.022338867 -0.17871094 0.036865234 0.027709961 -0.14160156 0.111328125 0.030761719 -0.17773438 -0.09277344 -0.05444336 0.19042969 -0.032226562 -0.01574707 -0.111328125 -0.029296875 0.035888672 0.23925781 0.004760742 -0.049804688 -0.09472656 -0.0703125 0.044433594 -0.05053711 0.15332031 0.080566406 -0.012084961 0.17480469 0.017822266 0.18066406 -0.01953125 0.064453125 -0.087890625 -0.028930664 -0.11279297 0.068359375 0.08251953 -0.13476562 0.09423828 -0.13378906 0.014099121 -0.10644531 -0.083984375 0.052490234 -0.08984375 0.03173828 0.2734375 -0.029174805 -0.16308594 -0.24511719 -0.02331543 0.15234375 -0.15625 -0.15429688 -0.17578125 -0.024780273 -0.16796875 -0.1796875 -0.011657715 0.19628906 -0.087402344 0.15820312 0.11230469 -0.15625 -0.07714844 0.045654297 0.020385742 -0.034423828 0.0017242432 0.14648438 0.009399414 0.033203125 -0.08642578 0.1484375 -0.04272461 -0.011962891 0.07080078 -0.099121094 0.15527344 -0.31445312 0.049804688 0.059326172 0.17480469 0.051513672 -0.118652344 -0.006713867 0.12011719 0.20214844 0.103515625 0.05126953 -0.08544922 -0.09472656 0.044921875 -0.13574219 -0.17382812 -0.060791016 -0.08935547 -0.19042969 0.044921875 -0.072753906 0.16210938 0.12109375 -0.0859375 -0.0625 -0.024780273 0.053710938 0.109375 0.32226562 0.091796875 -0.12109375 -0.1328125 -0.01953125 -0.20507812 -0.080078125 -0.15917969 0.080078125 -0.10498047 0.025146484 0.044921875 0.13476562 -0.11425781 -0.14453125 0.060546875 0.09863281 0.057617188 0.099121094 0.029296875 -0.095703125 -0.060058594 -0.1328125 -0.21777344 0.016967773 -0.18652344 0.15625 -0.064941406
come 0.021850586 0.060791016 0.045410156 0.12695312 -0.125 -0.052246094 -0.020874023 0.18066406 0.07861328 0.15039062 -0.024169922 -0.008361816 -0.118652344 0.0012969971 -0.14453125 0.16894531 0.22265625 0.09277344 0.07763672 -0.004760742 -0.17480469 0.17871094 0.040039062 0.013122559 0.1875 0.021850586 -0.022583008 -0.17382812 0.00340271 -0.06982422 -0.12207031 -0.10253906 -0.15429688 -0.049560547 -0.014465332 -0.110839844 0.020629883 -0.021362305 0.057128906 0.1796875 0.12402344 0.057617188 0.04736328 -0.0036773682 -0.020385742 -0.19042969 -0.17578125 -0.15429688 -0.021362305 0.014099121 -0.014831543 0.18359375 -0.048828125 -0.025878906 0.10205078 -0.13671875 -0.0045166016 -0.009277344 0.15527344 -0.0057373047 0.02722168 0.039794922 -0.055664062 0.06640625 -0.1484375 -0.083496094 -0.10888672 0.18066406 -0.15039062 0.17382812 0.103515625 -0.016235352 0.16796875 -0.18554688 -0.095703125 -0.1484375 -0.10888672 0.18066406 -0.13671875 0.171875 0.0099487305 -0.171875 0.025268555 0.007751465 0.009521484 0.024047852 -0.048828125 0.0146484375 -0.13671875 0.016113281 0.29492188 0.16503906 -0.07910156 -0.07910156 -0.12597656 -0.16796875 0.076171875 0.3046875 0.14648438 -0.06982422 -0.25 0.10107422 0.029052734 -0.049072266 -0.05883789 -0.21679688 0.060791016 -0.071777344 0.09423828 -0.060791016 -0.06933594 0.01159668 0.002090454 -0.13964844 0.08154297 0.018066406 -0.008605957 -0.12109375 0.13183594 0.0045776367 0.107910156 0.07128906 0.00982666 0.21386719 0.012145996 0.17578125 -0.05053711 -0.16796875 -0.123535156 -0.047851562 0.044677734 -0.30859375 -0.010559082 -0.03857422 0.0027770996 -0.09033203 0.063964844 2.8163195e-06 -0.0013198853 0.045654297 -0.12988281 0.06298828 -0.012634277 0.06542969 -0.015991211 0.20019531 0.021606445 -0.26953125 0.068847656 -0.067871094 0.07861328 0.15625 -0.06640625 0.046142578 -0.043945312 -0.15429688 0.043701172 -0.15136719 -0.075683594 0.053955078 0.140625 0.0020751953 -0.025878906 -0.091796875 0.24804688 -0.34375 -0.06933594 0.03491211 0.111328125 -0.080078125 -0.28710938 -0.092285156 -0.032470703 -0.03149414 0.03515625 0.09765625 0.21191406 0.03173828 0.08642578 0.103515625 -0.07910156 -0.080078125 0.007751465 0.14160156 -0.08496094 -0.13476562 -0.022338867 -0.07470703 0.20996094 0.022216797 0.30078125 0.0009422302 0.31445312 -0.03149414 -0.011169434 0.09277344 -0.03955078 0.032958984 -0.12597656 -0.07324219 -0.06689453 0.10107422 -0.11279297 0.011291504 0.052001953 0.037109375 -0.034179688 -0.19238281 0.21777344 0.0625 -0.0859375 0.031982422 0.111328125 -0.059570312 -0.1875 -0.032714844 0.12060547 -0.076660156 -0.052978516 -0.119140625 -0.100097656 -0.029663086 -0.033935547 0.076660156 0.19628906 -0.045898438 -0.053955078 0.104003906 0.05810547 -0.0066223145 0.015380859 0.17871094 0.037109375 0.125 0.091308594 0.055419922 -0.13671875 -0.13085938 0.023803711 0.055908203 0.12695312 0.00021362305 -0.11279297 -0.11328125 0.07324219 0.079589844 0.014343262 -0.060302734 0.060791016 0.007446289 0.016845703 0.13476562 0.095214844 0.091308594 0.07910156 0.055908203 0.032226562 -0.13574219 -0.08935547 -0.099121094 -0.14160156 -0.09814453 -0.051757812 0.25585938 0.17578125 -0.040039062 -0.022460938 0.0087890625 -0.09765625 -0.004119873 0.19824219 0.21972656 0.09472656 0.051757812 0.24414062 -0.083496094 -0.015563965 -0.15234375 -0.011352539 -0.00579834 -0.09326172 -0.12158203 0.11328125 0.088378906 -0.063964844 0.040039062 0.018798828 0.022705078 -0.18261719 0.23046875 -0.16894531 0.18066406 -0.06298828 0.20410156 -0.0018005371 0.017700195 0.09472656 -0.107910156 0.16699219 -0.16992188
best -0.12695312 0.021972656 0.28710938 0.15332031 0.12792969 0.032714844 -0.115722656 -0.029541016 0.15332031 0.011291504 0.13964844 -0.08691406 0.2578125 0.07373047 -0.018920898 0.125 0.09082031 -0.0015563965 -0.031982422 -0.14550781 0.047607422 0.17382812 -0.14648438 0.006011963 0.030273438 0.040771484 -0.06640625 0.18457031 0.09716797 -0.10498047 0.024902344 0.056396484 0.16503906 0.09082031 0.18554688 0.22558594 -0.039794922 -0.16796875 -0.06933594 0.01965332 0.24316406 -0.039794922 -0.15234375 0.053466797 -0.060058594 0.29492188 0.18164062 -0.04638672 0.16796875 0.1015625 0.09082031 0.31835938 -0.06225586 0.083984375 -0.16601562 -0.020996094 -0.019042969 -0.16601562 0.12109375 0.026489258 -0.06738281 0.2421875 -0.17480469 -0.05102539 0.07763672 0.006378174 -0.09716797 -0.02319336 -0.0625 0.083496094 0.10986328 6.467104e-06 0.2578125 0.140625 -0.25976562 -0.05883789 -0.018066406 0.033203125 -0.13476562 0.007385254 0.052978516 0.051757812 0.10205078 0.11767578 0.10839844 0.01373291 -0.055664062 0.13769531 -0.08300781 0.23144531 0.14453125 0.16699219 -0.11425781 -0.083984375 -0.056152344 -0.23535156 0.08203125 0.022827148 -0.18359375 -0.033203125 0.0115356445 0.12890625 -0.114746094 -0.21679688 -0.22070312 0.10058594 -0.09375 -0.048583984 0.0036010742 -0.01550293 0.15917969 0.08984375 -0.25585938 0.087402344 0.3046875 -0.012084961 0.0048217773 -0.29882812 -0.0703125 -0.115234375 -0.09765625 0.067871094 0.12792969 0.09082031 -0.052001953 -0.19140625 0.0115356445 -0.30664062 -0.19433594 0.09863281 -0.27148438 -0.12695312 -0.14746094 -0.084472656 -0.06347656 -0.25976562 0.07128906 -0.0031585693 0.21191406 0.15527344 -0.06591797 -0.059326172 0.060546875 0.11767578 0.024047852 -0.04638672 -0.15234375 -0.05493164 0.21289062 0.024658203 -0.040039062 0.21484375 -0.08105469 0.22949219 -0.06689453 -0.08251953 0.107910156 -0.16210938 -0.12988281 -0.09082031 -0.23046875 0.015075684 0.047851562 -0.06591797 0.1015625 6.484985e-05 -0.057128906 -0.13183594 -0.28710938 0.07861328 -0.06298828 0.051757812 0.10644531 -0.06225586 -0.025146484 0.08496094 0.265625 -0.0004234314 -0.12597656 0.033691406 -0.095703125 -0.27734375 -0.068847656 -0.16503906 -0.31640625 -0.103515625 -0.2421875 0.14648438 0.057373047 -0.07421875 -0.06591797 0.19042969 0.1484375 -0.12988281 0.09326172 -0.12402344 -0.025878906 -0.06738281 -0.23046875 -0.33203125 0.018310547 0.23535156 0.053955078 0.15136719 -0.123535156 -0.0703125 -0.0067749023 -0.0146484375 -0.067871094 0.08105469 -0.05908203 0.031982422 -0.036376953 0.004547119 -0.23339844 -0.12011719 0.1484375 0.0057678223 0.040283203 -0.06738281 -0.1640625 0.11279297 -0.13574219 0.06640625 -0.045410156 0.044189453 -0.13085938 -0.12792969 -0.033203125 0.095703125 -0.06591797 -0.06689453 0.13867188 0.092285156 0.171875 -0.01586914 -0.08105469 -0.26171875 -0.063964844 0.083984375 0.09277344 -0.14355469 -0.0015716553 -0.18554688 0.049316406 0.0859375 -0.018554688 -0.017700195 -0.25585938 -0.16699219 -0.021972656 -0.072265625 0.052490234 0.079589844 0.11376953 -0.05102539 -0.15820312 0.07128906 -0.18261719 -0.20410156 -0.17871094 0.12060547 -0.035888672 0.095703125 0.15234375 0.0039978027 -0.05908203 -0.032470703 -0.05419922 -0.005493164 -0.045654297 -0.0015258789 -0.05029297 0.25585938 0.048339844 -0.01940918 -0.12792969 -0.088378906 -0.22558594 0.087402344 0.20507812 0.0859375 0.06640625 0.10839844 -0.19140625 0.0703125 -0.16308594 -0.0024719238 0.020263672 0.001701355 0.006439209 -0.033935547 -0.16601562 -0.016845703 -0.048583984 -0.022827148 -0.15234375 -0.1015625 -0.09033203 0.088378906
ever -0.22558594 -0.032470703 0.040283203 0.12695312 -0.071777344 0.026245117 -0.017822266 0.024902344 0.21484375 0.12792969 -0.016967773 -0.34570312 0.057128906 -0.08935547 0.072753906 0.13574219 0.16699219 -0.04248047 0.23242188 -0.0023345947 -0.0054626465 0.09326172 0.20019531 -0.25585938 -0.07128906 -0.04345703 -0.10644531 0.10644531 0.056396484 0.091796875 0.03112793 0.31640625 -0.15429688 0.06298828 0.21875 0.17773438 0.099609375 -0.24121094 0.29101562 0.09667969 -0.078125 -0.08251953 -0.052490234 0.0703125 0.12695312 0.20410156 0.01361084 0.19042969 -0.0051879883 0.046142578 0.032958984 -0.032470703 -0.10888672 0.072265625 0.032714844 0.06298828 0.072265625 -0.21289062 0.033447266 0.0064697266 -0.09863281 -0.033691406 -0.043945312 -0.08496094 -0.01159668 0.083496094 -0.039794922 -0.038085938 -0.21679688 0.16015625 0.05126953 -0.084472656 -0.080078125 0.05126953 -0.12988281 -0.080078125 0.14550781 0.15234375 0.08984375 0.0068359375 0.036132812 -0.11230469 0.20019531 -0.12988281 -0.20996094 -0.13085938 -0.30078125 0.07714844 0.1171875 0.04345703 0.044189453 0.068847656 -0.21582031 -0.084472656 -0.13183594 -0.203125 0.10498047 0.119628906 0.05053711 -0.07519531 -0.05029297 0.056884766 -0.055419922 0.10498047 -0.24511719 -0.111816406 0.034423828 0.013977051 -0.20703125 -0.22753906 0.080078125 -0.15136719 0.0010604858 0.26757812 0.06542969 -0.012634277 0.08642578 -0.17089844 0.010437012 -0.037597656 -0.08935547 0.06738281 0.05810547 0.092285156 -0.07324219 -0.072753906 0.13867188 0.020996094 0.024291992 -0.031982422 -0.14550781 -0.109375 -0.17382812 -0.03540039 0.092285156 -0.16992188 -0.0234375 -0.0064086914 -0.06225586 0.12792969 -0.02355957 -0.20117188 -0.041015625 0.011291504 0.13671875 0.04638672 0.012145996 -0.07128906 -0.032958984 -0.05444336 -0.13574219 -0.05908203 -0.24707031 -0.07080078 -0.09472656 -0.12695312 -0.114746094 0.005432129 0.024047852 -0.08496094 0.052246094 -0.041015625 -0.033447266 0.046142578 -0.056640625 0.095703125 -0.033203125 -0.20507812 -0.21386719 0.12890625 0.017089844 -0.0008583069 -0.08984375 -0.31445312 -0.1015625 -0.119628906 0.056396484 -0.075683594 0.012268066 -0.122558594 0.087890625 -0.041748047 0.026489258 -0.14550781 -0.14355469 -0.050048828 -0.10986328 -0.11816406 0.017700195 0.099121094 0.18554688 0.11376953 0.125 0.053466797 -0.0119018555 0.02355957 -0.05126953 0.13964844 0.052490234 -0.33398438 -0.087890625 0.16992188 0.01940918 0.03491211 0.028198242 -0.030395508 -0.14746094 -0.12207031 -0.05834961 -0.017578125 0.10107422 0.16308594 -0.09472656 -0.044921875 -0.33007812 -0.041503906 0.05859375 0.021606445 -0.10595703 0.05419922 -0.18554688 0.16796875 0.0546875 0.023803711 -0.08642578 -0.024536133 0.00340271 0.1328125 0.05834961 -0.18164062 0.07324219 0.099609375 0.09667969 0.07470703 0.13769531 0.032226562 -0.13183594 -0.24707031 0.13574219 -0.17871094 0.0546875 -0.22558594 0.049804688 -0.06933594 0.10595703 0.022705078 -0.006225586 -0.060546875 0.01928711 0.010803223 0.11279297 -0.25 0.04272461 0.18652344 -0.06982422 0.04638672 -0.11669922 -0.10498047 -0.011352539 -0.25976562 -0.025512695 0.014282227 0.1015625 0.13574219 -0.004486084 0.16796875 -0.06982422 0.10058594 -0.036865234 -0.008728027 -0.10205078 0.12109375 0.22753906 0.30273438 -0.07421875 -0.06347656 -0.25585938 -0.13574219 0.020996094 -0.17382812 0.029785156 0.091796875 0.040039062 0.103027344 0.002532959 0.0024719238 -0.13671875 -0.25390625 0.22753906 0.25976562 -0.24511719 -0.018310547 -0.13476562 0.25195312 -0.03125 -0.11279297 -0.25 -0.06738281 -0.099121094 -0.1640625
tasted -0.47460938 0.16015625 -0.025146484 0.17089844 -0.015197754 -0.04321289 0.1015625 -0.06738281 -0.13085938 0.47460938 -0.22558594 -0.2734375 -0.0390625 0.15039062 0.106933594 0.55078125 0.22167969 0.19726562 0.15039062 -0.03466797 -0.15039062 0.3984375 0.17675781 -0.359375 0.11279297 -0.31835938 0.09033203 0.056884766 -0.05102539 0.22363281 0.17089844 0.16601562 0.01928711 0.29101562 0.0703125 0.031982422 0.07861328 -0.22558594 0.1328125 0.36914062 0.0030517578 -0.1953125 0.21484375 0.36523438 0.23925781 -0.20898438 -0.044433594 0.18164062 -0.25195312 0.13671875 -0.31835938 0.03955078 -0.21777344 0.05859375 -0.328125 -0.03857422 0.072753906 -0.045654297 0.043701172 -0.122558594 -0.25390625 0.35546875 0.22265625 0.07714844 0.04638672 -0.30859375 0.12792969 -0.359375 0.25585938 0.13085938 0.17480469 -0.122558594 0.15527344 0.104003906 -0.17578125 -0.390625 -0.20117188 -0.23535156 0.037353516 0.2109375 0.032714844 -0.16210938 -0.020385742 -0.28515625 -0.15722656 -0.095703125 -0.14453125 0.115722656 0.08300781 -0.07470703 -0.15625 -0.22363281 -0.14160156 0.296875 -0.039794922 -0.095703125 -0.17675781 0.26171875 0.03491211 -0.33789062 0.016113281 0.18261719 -0.15820312 0.26757812 0.17871094 -0.33789062 0.2734375 0.001335144 0.14160156 -0.21386719 0.24902344 0.16699219 0.10595703 -0.2421875 0.11621094 0.014221191 0.038330078 0.05493164 -0.015258789 -0.34375 0.09326172 0.30859375 -0.018310547 -0.031982422 -0.3515625 0.32421875 0.2578125 -0.30273438 0.21777344 -0.18554688 -0.41015625 0.35742188 -0.26953125 0.022583008 -0.03881836 0.203125 -0.030883789 -0.060546875 0.02709961 0.17675781 -0.27539062 0.03881836 -0.0016479492 -0.421875 -0.036376953 0.06640625 0.034179688 -0.11425781 -0.34960938 -0.31640625 -0.07324219 0.21289062 -0.51953125 0.11425781 -0.19921875 -0.061767578 -0.2890625 -0.03112793 -0.27539062 -0.027709961 0.017700195 -0.18164062 0.18066406 0.14257812 0.21777344 -0.5078125 0.07080078 -0.0625 0.19238281 -0.09082031 -0.17285156 -0.04736328 -0.16308594 -0.0703125 -0.109375 -0.10253906 0.053955078 -0.23925781 0.00491333 0.12695312 0.13867188 0.08300781 0.14257812 0.12597656 -0.040283203 -0.265625 -0.23535156 -0.014404297 -0.63671875 0.04638672 -0.04272461 -0.2890625 0.053955078 0.1796875 -0.09082031 0.390625 0.09716797 0.21386719 0.022460938 -0.11669922 0.028442383 -0.016601562 0.017944336 0.03515625 0.04296875 -0.103027344 -0.23925781 -0.015197754 -0.08544922 -0.20117188 -0.19335938 0.26367188 -0.022338867 0.03515625 -0.024780273 0.002532959 -0.084472656 -0.2578125 0.27539062 0.03540039 -0.017333984 0.048828125 0.31640625 0.29296875 0.11328125 0.20117188 -0.041503906 0.07080078 -0.28125 0.20117188 0.12988281 -0.119628906 0.22265625 0.31054688 0.14355469 -0.22265625 -0.096191406 0.03564453 0.043701172 -0.068847656 0.45898438 0.028564453 0.12792969 0.21582031 0.040283203 0.15039062 -0.030761719 -0.08544922 -0.005706787 0.080078125 -0.1484375 -0.115722656 0.4453125 -0.08496094 0.11816406 -0.1015625 -0.40234375 0.056884766 -0.12207031 -0.38671875 -0.12011719 0.32226562 0.100097656 0.13964844 0.28320312 -0.21191406 -0.20410156 -0.004852295 -0.015991211 -0.17480469 0.43359375 0.06591797 -0.08691406 0.34375 -0.029418945 0.107910156 -0.25976562 -0.079589844 -0.23925781 -0.51953125 -0.06738281 -0.052978516 0.14160156 0.013427734 -0.03540039 -0.13085938 -0.23339844 0.421875 -0.37695312 0.34375 -0.16796875 -0.20605469 0.018676758 0.42773438 -0.21875 -0.31054688 0.14746094 -0.48046875 0.14160156 -0.040771484
eating -0.14648438 0.17285156 -0.04711914 0.49804688 -0.010192871 0.27929688 0.007659912 0.09863281 -0.14941406 0.17480469 0.12060547 -0.1875 -0.16015625 0.22753906 -0.20703125 -0.071777344 -0.18457031 -0.008300781 0.051513672 0.021972656 -0.05859375 -0.042236328 -0.10058594 0.060546875 -0.06542969 -0.21875 -0.14453125 0.049316406 0.022583008 0.10058594 -0.056396484 0.05834961 0.18359375 0.09033203 -0.04711914 -0.16894531 0.10058594 -0.12011719 0.15039062 0.2109375 -0.026367188 -0.26367188 0.2421875 0.11816406 0.02722168 -0.0066833496 -0.056640625 0.10498047 -0.15332031 0.14941406 -0.026123047 0.020507812 -0.016113281 -0.080566406 0.21972656 0.012207031 0.32617188 -0.171875 0.061523438 -0.1328125 -0.076171875 0.4609375 -0.10546875 0.15722656 0.26953125 0.07910156 -0.18652344 0.16503906 0.080078125 -0.09326172 0.035888672 0.041259766 0.057861328 0.13183594 -0.20703125 -0.38476562 -0.38671875 -0.10253906 0.049560547 0.22070312 0.01977539 -0.17480469 0.1875 0.040771484 -0.16308594 -0.21582031 -0.029541016 0.33007812 -0.023925781 -0.30664062 -0.05126953 -0.17675781 -0.09082031 -0.040283203 -0.002456665 -0.12988281 0.29492188 -0.07421875 0.08544922 -0.0023651123 -0.1171875 -0.119140625 0.19042969 0.20898438 0.049072266 -0.20898438 -0.09423828 -0.16308594 -0.27734375 -0.20214844 -0.18457031 -0.29101562 0.11328125 -0.17285156 0.07128906 -0.19238281 -0.04736328 -0.034179688 -0.25585938 0.076171875 -0.04638672 0.030273438 0.043945312 -0.030761719 -0.21289062 0.1171875 -0.007446289 0.09082031 -0.13769531 0.063964844 -0.18554688 -0.115234375 -0.19140625 0.07373047 -0.24121094 0.26757812 0.21972656 0.12402344 0.26757812 0.23046875 0.072753906 -0.011230469 -0.29296875 -0.25390625 -0.040771484 -0.025512695 -0.15429688 -0.083496094 -0.048095703 -0.033935547 0.067871094 0.004760742 -0.17773438 -0.020996094 -0.056152344 -0.041992188 -0.028564453 -0.31445312 -0.11376953 -0.03125 -0.17773438 0.31445312 -0.05102539 0.1328125 -0.17089844 -0.07714844 0.0029907227 0.16503906 0.1484375 -0.171875 -0.49414062 0.055419922 0.06738281 0.3359375 -0.21875 -0.053466797 0.13378906 0.2578125 0.10644531 0.24511719 0.13769531 -0.20410156 0.07128906 -0.24707031 0.25390625 -0.07128906 -0.18457031 -0.103515625 -0.20410156 -0.12109375 -0.115234375 -0.004180908 0.028564453 0.006225586 -0.15234375 0.24804688 0.014526367 -0.08496094 -0.111816406 -0.14550781 -0.118652344 -0.0030975342 -0.3046875 -0.12890625 0.048339844 0.010253906 0.040283203 -0.028808594 -0.14941406 -0.2421875 -0.38476562 0.067871094 0.08496094 0.048583984 0.055908203 0.17578125 0.13867188 -0.032470703 0.0076293945 0.030273438 -0.07324219 -0.010009766 0.29296875 0.083984375 -0.06225586 -0.08935547 -0.096191406 0.011962891 0.109375 -0.0049438477 0.23242188 -0.24609375 -0.07470703 0.06738281 0.15234375 -0.2578125 0.22167969 0.18261719 -0.14550781 -0.14746094 0.17382812 0.0036773682 0.08203125 -0.2734375 0.28125 -0.050048828 0.12988281 0.041015625 0.10595703 -0.16699219 0.11376953 0.13183594 0.27148438 -0.044433594 0.061035156 -0.40429688 -0.19433594 -0.17285156 -0.17773438 0.080078125 0.049804688 0.10546875 -0.04345703 0.14257812 -0.13085938 -0.12792969 -0.12695312 0.17089844 0.099121094 0.09472656 -0.0625 0.16601562 0.32421875 -0.04296875 -0.036376953 -0.17089844 -0.31054688 0.14746094 -0.12695312 -0.19238281 0.07519531 -0.05053711 0.008605957 -0.104003906 -0.26953125 -0.057617188 -0.122558594 0.21972656 0.16894531 0.22265625 -0.15234375 -0.0058898926 0.029663086 0.13769531 0.10546875 -0.017578125 -0.110839844 -0.013244629 0.076171875 0.02734375
make -0.11328125 -0.036865234 0.09423828 0.0079956055 0.024902344 -0.16699219 0.036621094 0.07324219 0.21386719 -0.03857422 -0.09863281 -0.09033203 -0.068847656 0.34765625 0.051513672 -0.033691406 0.15332031 0.10595703 0.09765625 0.05078125 -0.03173828 0.018554688 0.24804688 0.18359375 0.0036315918 -0.1484375 -0.16113281 -0.008361816 -0.09082031 0.04736328 0.0012207031 0.12597656 -0.13964844 0.044189453 -0.053955078 -0.056396484 0.072753906 0.14648438 0.19433594 0.15820312 0.17871094 -0.075683594 0.15625 -0.1171875 0.041259766 -0.030395508 -0.047851562 -0.0013656616 0.03149414 0.026245117 0.043701172 0.08984375 0.05859375 -0.21191406 -0.12011719 0.16503906 -0.068847656 -0.13476562 -0.05517578 -0.034423828 0.022094727 -0.02722168 -0.09082031 -0.016479492 -0.072753906 0.09667969 0.009155273 0.24902344 -0.068847656 0.068359375 0.09667969 0.11669922 0.037841797 -0.052001953 -0.16601562 -0.16699219 0.119628906 0.16503906 -0.029296875 0.048828125 0.0032806396 -0.23632812 -0.03881836 0.016479492 0.045166016 -0.104003906 0.060302734 0.051757812 0.014953613 0.09765625 0.140625 -0.0013885498 0.04248047 -0.083984375 -0.030273438 -0.375 -0.0126953125 0.123535156 0.119628906 0.02734375 -0.004119873 -0.08105469 0.016723633 0.14550781 -0.114746094 -0.15625 0.07470703 -0.13476562 -0.04663086 0.0138549805 -0.125 -0.096191406 -0.06689453 0.028320312 0.08935547 -0.026855469 0.19335938 -0.036865234 -0.061767578 -0.028198242 0.104003906 0.12158203 -0.011779785 0.37890625 0.012573242 -0.072753906 0.05029297 -0.09277344 0.032714844 -0.017944336 -0.08300781 -0.18066406 -0.052978516 0.22167969 0.084472656 0.00592041 -0.049804688 0.063964844 -0.04711914 -0.14941406 0.16113281 -0.14746094 -0.07128906 0.05908203 0.07421875 0.1640625 0.055908203 -0.19433594 -0.028198242 0.08496094 -0.099121094 -0.059570312 -0.021118164 -0.015258789 -0.03491211 -0.10498047 0.084472656 0.0027160645 -0.10546875 -0.13867188 -0.0035858154 -0.026611328 -0.119628906 -0.15136719 0.1640625 -0.12890625 0.04663086 -0.012756348 0.17773438 -0.04663086 -0.17773438 -0.13476562 -0.07714844 -0.16210938 -0.13476562 -0.10058594 0.021606445 -0.10058594 -0.053466797 0.21972656 0.003326416 -0.23339844 0.106933594 0.103027344 -0.25 -0.16699219 -0.17089844 -0.15527344 0.016235352 -0.10888672 0.14160156 -0.06933594 0.02319336 -0.13867188 -0.15234375 -0.060058594 -0.007873535 -0.24609375 -0.3515625 -0.125 0.096191406 -0.118652344 -0.10205078 0.06689453 -0.012084961 -0.14160156 -0.13769531 -0.07080078 0.16796875 -0.13476562 0.04638672 0.16992188 0.09814453 0.20703125 -0.21972656 0.12988281 0.20117188 0.17871094 -0.084472656 -0.03515625 0.099121094 0.10107422 -0.12158203 0.06738281 0.05053711 0.07373047 -0.052490234 -0.0625 0.03881836 0.10595703 0.32226562 -0.022094727 0.095214844 -0.10644531 0.22558594 -0.037353516 0.048583984 -0.171875 -0.022338867 -0.076171875 -0.12011719 0.09082031 -0.075683594 0.1171875 0.10595703 -0.048095703 -0.07470703 0.036621094 -0.23339844 -0.07373047 -0.026611328 0.092285156 0.15527344 0.08984375 0.24121094 0.03125 0.024291992 0.30859375 -0.19042969 -0.08886719 -0.017578125 -0.061767578 -0.032470703 -0.024414062 0.20019531 0.012023926 0.119140625 -0.203125 -0.106933594 -0.14453125 0.18847656 0.19042969 0.18847656 0.17285156 0.114746094 -0.064941406 -0.14941406 -0.1796875 0.003692627 -0.12060547 0.056884766 -0.11279297 -0.030883789 0.14355469 -0.083984375 0.13085938 -0.07861328 -0.25 0.060302734 0.029663086 -0.12792969 0.13769531 -0.123535156 -0.008911133 -0.12988281 -0.034179688 0.041259766 -0.048583984 0.29492188 -0.20214844
much 0.16894531 0.063964844 -0.084472656 0.17382812 -0.07519531 0.08935547 0.23828125 -0.19335938 0.078125 0.008972168 -0.0040893555 -0.15722656 0.10253906 0.032714844 -0.056884766 0.0234375 0.02368164 0.23925781 0.08105469 0.011047363 -0.17773438 0.10107422 0.072753906 -0.012939453 0.10107422 0.037841797 -0.13476562 0.014221191 -0.014282227 -0.052490234 -0.040283203 0.15527344 -0.072265625 -0.06982422 -0.011779785 -0.018432617 -0.0062561035 0.118652344 0.10449219 0.2578125 0.14355469 -0.18261719 0.15332031 -0.052246094 -0.037597656 -0.080078125 -0.19921875 0.20800781 0.05810547 -0.106933594 0.23730469 0.008117676 -0.06591797 -0.08251953 0.037841797 0.114746094 -0.079589844 0.00046730042 0.1171875 -0.20605469 0.03515625 0.11376953 -0.18457031 -0.049804688 0.02368164 -0.061767578 0.06225586 -0.07910156 -0.09814453 -0.063964844 0.091308594 0.05419922 0.16210938 -0.08300781 -0.24609375 -0.05078125 0.1328125 0.14941406 0.07324219 -0.06542969 -0.20703125 0.07373047 0.0011672974 0.119628906 -0.32226562 -0.088378906 -0.068359375 0.20507812 0.072265625 0.07470703 0.23046875 0.1328125 -0.15527344 -0.052490234 0.04248047 -0.0023040771 -0.021240234 0.075683594 -0.07470703 -0.095214844 -0.048339844 -0.008972168 0.0012893677 -0.06591797 -0.119628906 -0.076660156 -0.12695312 -0.055664062 0.039794922 -0.24023438 0.21679688 -0.053955078 0.15820312 -0.03125 0.16796875 0.068359375 0.3515625 -0.09716797 0.01965332 0.06640625 -0.06347656 0.078125 -0.09765625 0.048583984 -0.16113281 0.09423828 -0.041015625 0.12695312 -0.03173828 -0.021240234 0.060791016 -0.08203125 -0.029541016 -0.06298828 -0.05419922 -0.1015625 0.19140625 0.08203125 0.020874023 -0.14257812 -0.04296875 -0.05053711 0.020019531 -0.20019531 0.04345703 -0.14160156 -0.12792969 -0.034423828 -0.13378906 -0.03125 -0.037597656 -0.024169922 -0.14453125 0.061279297 -0.032226562 0.049804688 0.029052734 -0.008361816 -0.15820312 -0.009887695 0.203125 0.35546875 0.07910156 0.05053711 0.057128906 -0.11669922 -0.015258789 0.059326172 0.13769531 -0.028808594 -0.15527344 0.045898438 -0.04711914 -0.12988281 -0.080078125 0.23730469 -0.0119018555 -0.27148438 0.022216797 -0.06542969 0.02746582 -0.08251953 -0.083984375 -0.12011719 0.08886719 -0.03125 0.031982422 -0.071777344 -0.076171875 0.075683594 0.2265625 -0.084472656 0.056884766 -0.064453125 0.001335144 -0.14355469 -0.23925781 -0.028808594 0.072753906 -0.13671875 -0.048339844 0.010559082 -0.080078125 0.20214844 0.044189453 0.06347656 -0.13867188 -0.099609375 -0.05029297 -0.036132812 -0.14160156 0.091796875 0.020019531 -0.033935547 -0.19628906 -0.10107422 0.22265625 0.012451172 0.0008506775 -0.030151367 0.030151367 -0.096191406 0.018676758 -0.080566406 0.017944336 -0.11767578 0.09814453 0.07763672 0.107421875 0.11669922 -0.045898438 -0.07324219 0.26171875 -0.12109375 0.010864258 -0.019897461 -0.28125 -0.34765625 0.103515625 -0.16699219 0.026977539 -0.14257812 0.15722656 -0.25976562 0.016967773 -0.05810547 0.051513672 -0.114746094 -0.13964844 0.1015625 0.032958984 0.17773438 0.106933594 0.0029754639 0.0099487305 -0.018188477 0.05883789 0.17773438 -0.12451172 -0.072265625 0.104003906 -0.076171875 -0.083984375 -0.17871094 -0.064453125 0.110839844 -0.020385742 -0.13183594 0.055908203 0.072753906 0.01159668 0.05444336 0.08642578 0.11279297 0.0068969727 0.005340576 -0.087890625 -0.023071289 -0.11376953 -0.12695312 0.14941406 0.01184082 -0.043945312 0.046142578 -0.038085938 0.0024414062 0.032958984 0.04663086 0.10205078 0.040039062 -0.34375 -0.021728516 -0.06640625 0.055419922 -0.10205078 -0.021728516 0.14941406 -0.171875 -0.029296875 -0.20605469
chinese -0.23535156 0.007873535 0.31054688 0.35546875 -0.29101562 -0.02319336 -0.17480469 -0.052490234 -0.16699219 0.16796875 -0.13964844 -0.44140625 -0.15332031 -0.3515625 -0.11669922 0.390625 -0.034423828 0.203125 -0.095214844 -0.15234375 -0.02368164 -0.22753906 0.3203125 -0.14257812 -0.109375 0.4453125 -0.19433594 0.28320312 0.11816406 0.063964844 0.20507812 0.05419922 -0.1875 -0.0021820068 -0.022460938 0.203125 -0.13574219 0.119628906 0.31640625 -0.12597656 -0.12207031 -0.07910156 0.28125 0.20605469 0.28515625 0.16113281 -0.26171875 -0.044433594 -0.23828125 -0.059814453 -0.0035095215 0.27734375 0.15917969 -0.020629883 -0.059814453 0.19628906 -0.41601562 -0.028808594 0.33789062 -0.20117188 -0.13476562 0.18554688 -0.12988281 -0.09765625 -0.032470703 -0.34960938 -0.28320312 -0.10205078 -0.025390625 0.21582031 -0.02758789 0.13671875 -0.12988281 -0.13183594 -0.23339844 -0.040039062 -0.15429688 0.34570312 -0.11230469 -0.044433594 -0.09716797 0.21972656 0.083984375 0.032470703 -0.203125 -0.050048828 -0.16699219 0.20800781 -0.09277344 -0.045166016 0.03881836 0.08886719 -0.20800781 -0.12988281 0.07373047 0.12060547 -0.057128906 -0.091308594 0.24023438 -0.07910156 -0.3359375 0.088378906 0.083984375 0.12890625 0.004638672 0.15625 -0.33203125 -0.10546875 0.20117188 -0.19433594 -0.122558594 -0.107421875 -0.19921875 -0.12695312 0.09814453 0.028076172 -0.032470703 -0.36132812 -0.24804688 0.08935547 0.056884766 -0.028686523 -0.27929688 0.13671875 0.19042969 0.0068969727 -0.24902344 0.033691406 -0.015991211 -0.053466797 -0.20898438 0.14160156 -0.05078125 0.15820312 -0.328125 0.068359375 -0.24414062 -0.24707031 0.15527344 -0.01171875 0.38085938 -0.35351562 -0.010864258 0.08544922 0.028930664 -0.048828125 0.021850586 0.049072266 -0.13378906 -0.36328125 0.34375 -0.265625 0.014160156 -0.08251953 -0.22949219 -0.16015625 -0.28125 0.09716797 0.08300781 -0.109375 -0.45898438 -0.010925293 -0.43164062 -0.20019531 -0.060791016 -0.38671875 0.21972656 0.041748047 -0.25 0.19628906 -0.61328125 0.10888672 0.09765625 -0.053222656 0.22070312 -0.12109375 0.484375 -0.095214844 0.33984375 -0.296875 0.1484375 0.11035156 0.029418945 -0.045898438 0.18554688 -0.021972656 0.029663086 -0.08496094 0.19238281 -0.18261719 0.19628906 0.06738281 -0.32226562 -0.17871094 0.11376953 -0.036132812 -0.096191406 -0.28710938 -0.35742188 0.032470703 -0.27734375 0.13964844 -0.060546875 -0.05883789 -0.38085938 -0.12597656 0.10888672 -0.41015625 -0.390625 0.26757812 -0.08691406 0.056152344 -0.26953125 -0.040283203 0.045654297 -0.17480469 0.2421875 -0.014221191 0.05834961 -0.030029297 -0.12890625 0.020751953 0.072753906 0.075683594 0.007873535 -0.04663086 -0.051757812 -0.0546875 -0.043945312 -0.10644531 0.25585938 -0.18261719 0.01373291 0.12695312 -0.13671875 0.0025482178 0.025390625 0.265625 0.19726562 0.14453125 0.23242188 0.12597656 -0.05883789 0.040771484 -0.1796875 -0.051513672 -0.03125 0.18164062 0.052001953 -0.3828125 -0.072753906 -0.028442383 0.29882812 0.09814453 0.14160156 -0.28515625 -0.095214844 -0.15917969 0.15332031 0.037109375 0.034423828 0.10546875 0.2890625 -0.4921875 -0.018066406 0.03491211 -0.21191406 0.014282227 0.26367188 -0.13378906 -0.46289062 -0.16113281 -0.033447266 0.05078125 0.38671875 -0.022094727 0.0074157715 -0.3515625 -0.34960938 0.12402344 0.024536133 0.19726562 -0.03173828 0.10253906 0.10986328 0.052001953 -0.12597656 0.21582031 -0.07470703 0.08154297 -0.009277344 0.48828125 0.1484375 0.37695312 0.18261719 0.005859375 -0.32421875 -0.0056152344 0.022827148 0.053955078
special -0.055908203 0.052978516 -0.028198242 0.11816406 -0.26757812 0.022705078 0.05126953 -0.06542969 -0.043701172 -0.14550781 -0.0016098022 -0.03125 0.20996094 0.025146484 -0.3046875 0.118652344 0.045166016 0.12060547 0.080566406 0.13378906 0.029174805 -0.049804688 -0.09472656 0.05102539 0.10205078 -0.024047852 0.14453125 -0.09423828 -0.0625 0.00491333 -0.17089844 0.05908203 0.07324219 0.055664062 0.076171875 -0.35742188 0.079589844 -0.115722656 -0.08642578 -0.08642578 0.13378906 0.12109375 0.21679688 0.020996094 0.15039062 -0.18847656 0.10546875 0.07861328 0.045410156 -0.043945312 -0.034179688 0.11328125 0.107910156 0.25390625 -0.22949219 0.055664062 -0.06542969 -0.055908203 0.08984375 -0.08203125 -0.171875 0.23046875 0.018310547 -0.072753906 0.07910156 -0.21386719 -0.04736328 -0.09326172 0.005584717 -0.0027618408 0.1328125 -0.033447266 0.02758789 0.203125 -0.032470703 0.0023498535 0.23046875 0.18457031 -0.049316406 0.13867188 0.02746582 -0.115722656 -0.12451172 0.052246094 -0.04272461 -0.37109375 -0.11425781 -0.01977539 -0.06298828 0.25195312 0.103515625 0.123046875 -0.06298828 0.024902344 0.125 -0.0010757446 0.21972656 0.019042969 -0.006958008 -0.068847656 0.07519531 0.103027344 0.09472656 -0.080566406 -0.10888672 0.07714844 0.09863281 -0.13476562 0.06542969 -0.14550781 0.024780273 -0.051513672 -0.17675781 0.067871094 0.24707031 -0.037841797 0.04711914 -0.041748047 0.09472656 -0.052246094 -0.07910156 -0.07324219 -0.036621094 0.15527344 -0.064453125 0.14257812 0.23144531 0.018432617 0.234375 -0.056640625 0.056396484 -0.059814453 -0.10449219 -0.08886719 0.1875 0.029296875 0.022460938 -0.001159668 0.029785156 0.024902344 -0.009460449 0.049804688 0.076660156 -0.19628906 0.05883789 -0.15625 -0.013000488 0.14648438 -0.13378906 -0.038330078 0.13183594 0.20800781 -0.09033203 0.1015625 -0.04345703 -0.24414062 0.08642578 -0.06640625 -0.063964844 -0.068359375 -0.111328125 -0.052001953 -0.0011825562 0.17773438 0.16894531 0.032958984 0.15234375 -0.06738281 0.06225586 0.025756836 -0.15039062 -0.087890625 -0.0058898926 -0.16210938 -0.09326172 0.04638672 0.049316406 0.032226562 -0.109375 -0.078125 -0.0073547363 -0.09277344 0.014038086 0.068359375 -0.06689453 -0.028808594 0.17382812 -0.092285156 0.296875 0.025756836 -0.16503906 0.13476562 0.059326172 -0.13476562 0.06640625 0.0040893555 0.13964844 -0.13476562 -0.123046875 0.044433594 -0.059814453 0.12890625 0.032226562 -0.015319824 0.016357422 -0.19042969 -0.13671875 0.15332031 0.10449219 0.09423828 -0.140625 0.09277344 0.06591797 -0.17578125 0.1953125 -0.06347656 0.45703125 -0.1015625 -0.096191406 -0.16503906 0.057861328 -0.030029297 -0.049316406 -0.1484375 -0.080566406 -0.0154418945 -0.0234375 0.119628906 0.08300781 0.091796875 -0.04321289 -0.013366699 -0.030639648 0.26757812 -0.0064086914 0.05444336 -0.087890625 -0.28125 0.030395508 -0.008178711 0.24511719 -0.14941406 0.05053711 0.064453125 0.091796875 0.09423828 -0.03173828 -0.11621094 0.08300781 -0.18164062 -0.06298828 0.13476562 0.013305664 -0.080078125 0.13671875 0.061767578 0.04296875 -0.12402344 0.040283203 0.1171875 0.012634277 -0.026489258 -0.203125 -0.22265625 0.0625 0.05126953 0.110839844 0.17285156 -0.39453125 -0.0038604736 0.1640625 0.009033203 -0.17089844 0.109375 0.33984375 -0.22753906 0.28515625 -0.31445312 -0.1484375 -0.10595703 -0.10205078 -0.061279297 -0.048583984 0.06201172 -0.018676758 0.043945312 -0.25 -0.056152344 0.20214844 -0.2578125 0.20605469 -0.16015625 -0.032226562 0.16210938 0.011169434 -0.07128906 -0.099121094 -0.041259766 -0.04663086 -0.107421875
japanese -0.0027008057 0.04345703 0.16015625 0.44921875 -0.24609375 -0.08154297 0.026611328 0.021362305 0.16796875 -0.05517578 -0.29492188 -0.38867188 -0.09033203 -0.22949219 -0.1640625 -0.080566406 -0.09326172 0.3515625 0.03540039 -0.07861328 -0.057861328 -0.022827148 0.014831543 0.052978516 -0.35742188 0.42773438 -0.057617188 0.31445312 0.08251953 -0.053710938 0.23144531 0.005859375 -0.14550781 -0.10546875 -0.111328125 0.049072266 -0.076660156 0.3125 0.31445312 -0.04272461 0.044433594 0.1953125 0.4140625 0.40429688 0.16210938 0.14257812 -0.049072266 0.049316406 -0.049072266 0.001373291 -0.140625 -0.029296875 0.13867188 0.16503906 -0.18847656 0.24902344 -0.09863281 -0.064941406 0.18652344 -0.3203125 -0.061035156 -0.03491211 -0.31640625 -0.17089844 0.068359375 -0.25585938 -0.22167969 -0.24316406 0.05053711 0.057617188 0.022705078 0.3515625 -0.22363281 -0.030151367 -0.36914062 0.21777344 -0.084472656 0.16113281 0.104003906 -0.103027344 -0.024536133 -0.15234375 -0.32617188 0.21191406 0.17089844 0.17773438 -0.13378906 0.23828125 0.20898438 -0.028564453 -0.24804688 0.20507812 -0.2578125 0.20898438 0.140625 0.0859375 -0.061767578 -0.026000977 0.20117188 -0.09423828 -0.3046875 0.2578125 -0.049804688 0.29492188 0.24707031 0.28320312 -0.26757812 0.17773438 0.16503906 0.119140625 -0.2109375 -0.13183594 -0.04663086 0.11279297 -0.100097656 -0.18945312 -0.25 -0.5390625 0.05419922 0.19921875 -0.19140625 -0.1328125 0.018554688 0.16308594 0.18066406 -0.17578125 -0.34570312 -0.107421875 0.19140625 -0.052490234 -0.12402344 0.0035247803 -0.084472656 0.118652344 -0.21289062 -0.15625 -0.26757812 -0.4296875 0.11279297 -0.27734375 0.32226562 -0.21386719 -0.100097656 0.16113281 -0.061035156 -0.123046875 -0.10253906 0.084472656 -0.19824219 -0.26367188 0.18847656 -0.21289062 -0.2578125 -0.24511719 -0.16210938 -0.4140625 0.014038086 0.078125 -0.19140625 -0.104003906 -0.011413574 -0.00037574768 -0.125 -0.103027344 -0.16308594 -0.51171875 0.19140625 0.044433594 -0.11279297 0.29296875 -0.42773438 0.012512207 -0.080078125 0.025512695 0.13671875 0.037597656 0.18554688 -0.34179688 0.39453125 -0.110839844 0.15332031 -0.28515625 -0.1328125 -0.203125 0.25585938 0.23730469 0.1796875 -0.25585938 -0.099121094 -0.043945312 0.14941406 0.07910156 -0.32421875 -0.46289062 0.19433594 -0.06591797 0.19726562 0.10253906 0.056884766 -0.15917969 -0.234375 0.072753906 -0.07763672 -0.030761719 -0.22949219 -0.109375 -0.060302734 -0.59375 -0.47460938 0.2421875 -0.23535156 0.12988281 -0.17382812 -0.072265625 -0.23925781 -0.19238281 0.26367188 -0.056152344 -0.045898438 -0.004119873 -0.16015625 -0.16992188 0.19824219 0.16796875 0.016601562 -0.27929688 -0.18261719 -0.025634766 0.1328125 -0.15234375 0.07373047 -0.34179688 -0.0625 0.2421875 0.038085938 0.19335938 -0.1015625 0.05834961 0.14746094 0.25976562 0.07128906 0.125 -0.171875 0.025390625 -0.33007812 -0.09667969 0.15722656 0.3359375 0.035888672 -0.43359375 0.024902344 0.068359375 0.34765625 -0.061523438 0.033691406 -0.45703125 -0.18457031 0.22851562 0.18554688 0.103027344 0.23535156 -0.05419922 0.018188477 -0.40234375 -0.111816406 0.053710938 -0.10449219 0.25390625 0.4140625 -0.18164062 -0.15136719 -0.37109375 -0.12451172 0.18945312 0.4453125 0.052490234 -0.17675781 0.203125 -0.140625 0.41796875 -0.10644531 -0.067871094 0.40039062 0.072753906 0.041503906 0.0034484863 -0.16210938 -0.010986328 -0.20800781 0.047607422 -0.17675781 0.53125 0.2109375 0.28515625 -0.064453125 -0.35742188 -0.41601562 0.06591797 -0.040039062 0.1328125
try 0.24023438 0.20117188 0.16210938 0.20898438 0.01159668 -0.025878906 0.23339844 -0.03564453 -0.10595703 -0.14746094 -0.010253906 0.010314941 -0.061767578 -0.027954102 -0.20800781 -0.041259766 0.078125 0.25390625 0.23242188 -0.15039062 0.047851562 0.076660156 0.22265625 -0.1484375 -0.012084961 -0.140625 -0.040771484 0.072753906 0.0045776367 0.030395508 0.14453125 0.13574219 -0.033203125 -0.17480469 -0.06640625 0.15625 0.15527344 0.008056641 0.11279297 0.008544922 0.15917969 -0.05126953 0.16699219 -0.08251953 -0.1875 0.28125 -0.050048828 0.080566406 0.0019226074 0.10107422 -0.07324219 0.16210938 0.053222656 -0.005340576 0.028442383 -0.033691406 -0.0072631836 -0.13769531 0.10595703 -0.014953613 0.022460938 -0.061767578 -0.21875 -0.08935547 0.115234375 -0.02355957 0.0095825195 0.28515625 0.013977051 0.07080078 0.04711914 0.114746094 0.03466797 0.043701172 -0.3515625 -0.25 0.064941406 0.08642578 -0.007751465 -0.0546875 -0.15429688 -0.079589844 0.0625 0.041259766 0.022949219 -0.10644531 -0.10839844 0.096191406 -0.21972656 0.16699219 0.15332031 0.07714844 -0.1796875 -0.25585938 0.083984375 -0.23242188 0.072265625 0.059326172 -0.020385742 0.099609375 -4.7683716e-05 -0.009643555 -0.011474609 0.002746582 0.030151367 -0.032226562 -0.119140625 -0.045166016 0.07714844 0.1328125 -0.23632812 -0.016113281 -0.11328125 -0.056396484 0.028564453 -0.026611328 0.025512695 -0.016479492 -0.0061950684 0.024780273 0.015136719 0.08886719 -0.100097656 0.07373047 0.0625 -0.16699219 -0.122558594 -0.22851562 -0.04345703 -0.048583984 -0.045166016 -0.055664062 -0.0115356445 0.06347656 -0.046875 -0.13378906 0.18359375 0.00970459 0.07128906 0.19238281 0.11279297 -0.20019531 -0.033935547 -0.032470703 0.068359375 0.22558594 -0.17578125 -0.051513672 0.040039062 -0.09375 -0.07324219 0.068847656 -0.11328125 0.21679688 0.07763672 -0.016845703 0.072265625 -0.16308594 -0.12597656 0.18261719 -0.010803223 0.16210938 0.0005493164 -0.18164062 0.0032806396 -0.21875 0.21289062 -0.13183594 0.16015625 -0.111328125 -0.11376953 0.096191406 -0.19726562 0.13574219 0.13183594 -0.06689453 0.22265625 0.11669922 -0.14941406 0.17480469 -0.110839844 -0.12011719 0.078125 0.04711914 0.0037841797 -0.23242188 -0.1015625 -0.032714844 0.22460938 -0.100097656 0.0018920898 0.103515625 0.2578125 -0.0068969727 0.17382812 -0.08300781 0.18554688 0.119140625 -0.28515625 -0.25976562 0.08984375 0.23730469 -0.13085938 0.09375 0.111328125 0.06640625 -0.024414062 0.045410156 0.088378906 -0.06933594 -0.015136719 0.15625 -0.07714844 0.23632812 -0.07763672 -0.010620117 0.05029297 0.0074768066 0.015075684 -0.075683594 0.01184082 -0.1015625 -0.15820312 -0.045166016 -0.03466797 0.111328125 0.1328125 0.06347656 0.05078125 0.040771484 0.08203125 -0.20898438 -0.010253906 -0.00020694733 0.12060547 -0.064941406 -0.10986328 -0.15722656 -0.052490234 0.107421875 -0.008605957 0.1875 0.08496094 -0.118652344 -0.025634766 0.072265625 -0.049560547 0.24707031 0.15234375 -0.013366699 -0.18847656 0.078125 0.15820312 0.060058594 0.19140625 0.08105469 0.047607422 -0.072753906 -0.010925293 -0.028686523 -0.31835938 0.3125 -0.053710938 0.08251953 -0.015991211 0.0071105957 0.057861328 0.056884766 -0.20507812 0.08251953 0.15625 0.234375 0.087890625 0.21777344 0.057617188 0.015563965 -0.06298828 -0.40625 -0.088378906 0.06298828 -0.14746094 -0.083984375 0.09863281 0.08642578 -0.028198242 0.012634277 -0.16210938 0.08984375 -0.119628906 -0.11376953 0.11279297 0.17675781 -0.10839844 -0.0043945312 -0.1484375 -0.064941406 0.1953125 0.03491211 0.03149414 0.014526367
maybe 0.08642578 0.010070801 0.057861328 0.38671875 0.040771484 -0.044677734 0.13769531 -0.1015625 0.008850098 0.08935547 -0.071777344 -0.22851562 -0.07763672 -0.18261719 -0.06640625 0.18652344 -0.01965332 0.18457031 0.08642578 -0.09423828 -0.12060547 0.107421875 0.14257812 -0.19726562 -0.019165039 0.03540039 -0.16992188 0.02746582 -0.045654297 0.1953125 -0.0077819824 0.21582031 -0.11669922 0.02319336 -0.04248047 -0.013366699 0.171875 0.056884766 0.047607422 0.15625 0.21875 -0.23828125 0.296875 -0.099609375 0.051513672 0.099609375 -0.0625 -0.11425781 0.0703125 0.0146484375 -0.087890625 0.06225586 -0.020751953 -0.012878418 -0.0043029785 0.10498047 0.14453125 -0.029907227 0.16601562 -0.12988281 0.067871094 0.18945312 -0.05834961 -0.06225586 -0.013977051 -0.12109375 -0.10253906 0.1171875 -0.19238281 0.03930664 0.052246094 0.09765625 0.067871094 0.18066406 -0.375 -0.114746094 0.05834961 0.15234375 0.075683594 0.09716797 0.019165039 -0.13085938 0.03125 0.14746094 -0.20800781 -0.0033111572 0.13867188 0.26757812 0.11621094 0.083496094 0.16796875 0.14550781 -0.20898438 -0.076171875 -0.11425781 -0.18164062 0.22949219 0.12597656 -0.107421875 -0.026611328 -0.21875 -0.06542969 0.13378906 0.032958984 -0.024658203 -0.07861328 -0.09814453 0.029174805 -0.08105469 -0.012817383 -0.080566406 -0.028442383 0.08544922 0.04321289 0.033203125 -0.08251953 0.08935547 -0.007751465 0.1640625 -0.12597656 -0.060302734 -0.061523438 -0.04736328 0.13671875 -0.087402344 -0.05053711 -0.047851562 0.05859375 -0.104003906 0.068847656 -0.100097656 -0.20214844 0.05126953 0.021362305 -0.052246094 -0.067871094 0.067871094 0.09423828 -0.072753906 0.17578125 0.076171875 -0.25 0.010192871 0.02368164 0.3203125 -0.013244629 -0.24023438 -0.21972656 -0.0546875 -0.123535156 -0.014587402 -0.032226562 -0.34179688 0.06347656 -0.048828125 -0.08642578 0.0005340576 -0.107421875 -0.19335938 0.087402344 0.064453125 0.06542969 -0.052490234 0.064941406 -0.05419922 -0.13769531 0.07910156 0.036376953 -0.044677734 -0.008361816 -0.1484375 0.08300781 -0.016601562 -0.002319336 -0.037353516 0.10888672 0.083984375 -0.08154297 0.07128906 0.08691406 -0.030883789 -0.0004863739 -0.061767578 0.15429688 -0.171875 0.03857422 -0.140625 -0.024169922 0.12402344 -0.024536133 0.11767578 0.08105469 0.09667969 -0.048339844 -0.030395508 -0.060302734 -0.10986328 -0.014587402 -0.12109375 -0.10644531 -0.03515625 0.017700195 -0.103515625 0.12011719 0.13769531 -0.10449219 -0.12792969 -0.055908203 -0.02746582 0.18359375 0.0060424805 0.125 -0.05053711 0.10498047 -0.059326172 -0.07519531 0.11816406 -0.072265625 -0.0015258789 0.021606445 -0.17675781 -0.119628906 -0.017456055 -0.04272461 0.115234375 -0.15234375 0.05126953 0.13867188 -0.18652344 0.04345703 -0.10888672 -0.0859375 0.061279297 -0.041015625 0.014038086 0.123535156 -0.0703125 -0.107421875 0.14160156 0.023071289 0.11279297 0.21875 0.104003906 -0.06933594 -0.17382812 0.13183594 -0.048583984 0.19824219 -0.06640625 -0.115722656 0.020141602 0.08105469 0.064453125 0.19238281 0.044189453 -0.012084961 0.12207031 0.10058594 -0.00030326843 -0.13867188 -0.09814453 -0.09472656 -0.0035247803 -0.022827148 -0.016845703 0.022827148 -0.002243042 -0.10498047 -0.15332031 0.003540039 -0.064453125 0.15820312 0.15136719 0.064941406 0.08935547 -0.07080078 -0.109375 -0.08251953 -0.07128906 0.07470703 -0.023071289 -0.1953125 0.12890625 0.04321289 -0.083984375 -0.03515625 -0.08154297 -0.110839844 -0.07080078 0.020996094 0.041503906 0.21875 -0.13574219 0.061523438 -0.019165039 -0.072753906 0.036621094 -0.12695312 0.115234375 -0.05834961
think -0.046875 0.06689453 0.009338379 0.26367188 -0.012451172 -0.03955078 0.22265625 -0.11328125 0.05444336 0.057128906 -0.09716797 -0.27148438 -0.09326172 -0.051757812 -0.17382812 0.23242188 0.05859375 0.31445312 -0.053222656 -0.17871094 -0.12695312 0.09423828 0.1953125 -0.14257812 0.18359375 -0.00013256073 0.026855469 -0.064453125 -0.012023926 0.07421875 -0.055908203 0.17675781 -0.072753906 0.009887695 0.25976562 0.017456055 0.115722656 0.12792969 -0.072265625 0.2734375 -0.008666992 -0.06225586 0.25195312 -0.118652344 -0.12695312 0.08642578 0.012023926 -0.21289062 -0.02722168 0.080078125 -0.0022735596 0.12060547 -0.061279297 -0.15136719 0.123046875 0.14550781 0.05883789 -0.035888672 0.17773438 -0.022827148 -0.063964844 0.14746094 -0.15136719 -0.10888672 0.10498047 -0.07714844 -0.08691406 0.084472656 -0.07421875 0.083496094 -0.0052490234 0.076660156 0.12988281 0.07470703 -0.34960938 -0.13867188 -0.05908203 0.24023438 0.19042969 0.33398438 -0.07910156 -0.03881836 0.19238281 0.15527344 -0.25976562 -0.08642578 -0.171875 0.26757812 0.09765625 -0.10839844 0.087402344 0.083496094 -0.2734375 0.010253906 -0.008850098 -0.20996094 0.19921875 0.17871094 -0.01373291 -0.01550293 -0.12890625 -0.012878418 0.17773438 0.20019531 0.05517578 0.024414062 -0.11230469 -0.11035156 -0.08251953 -0.15039062 -0.109375 -0.078125 -0.056884766 0.17773438 0.05859375 -0.20117188 0.06933594 -0.078125 0.0016403198 0.060058594 -0.084472656 0.09326172 -0.080078125 0.37304688 -0.119140625 -0.11328125 -0.1796875 0.03857422 -0.13671875 -0.07128906 -0.047607422 -0.2890625 -0.1640625 0.12060547 0.10498047 -0.22070312 0.028442383 0.16015625 -0.05834961 0.1640625 0.091796875 -0.13476562 0.06298828 -0.056884766 0.028808594 0.011962891 -0.01574707 -0.11767578 -0.011230469 -0.10986328 -0.051513672 0.091796875 -0.25976562 0.059814453 -0.008239746 -0.040283203 0.0043640137 -0.1640625 -0.17578125 0.13183594 0.05908203 0.06982422 -0.055664062 0.072753906 0.12988281 -0.15917969 0.036865234 -0.13574219 0.100097656 0.07470703 -0.16015625 0.053466797 0.05126953 -0.072753906 -0.11328125 0.03515625 0.1796875 -0.08642578 -0.071777344 0.013122559 -0.010559082 0.09423828 0.087890625 0.20996094 -0.083984375 -0.07519531 -0.103515625 0.063964844 0.075683594 0.13378906 -0.048339844 0.015625 0.13085938 -0.09375 0.014160156 -0.24511719 -0.02709961 0.10595703 0.037597656 -0.14746094 0.028808594 0.08935547 -0.10888672 0.0009727478 -0.09033203 -0.0021209717 -0.011047363 -0.026977539 0.052001953 0.04248047 -0.0015869141 0.265625 0.044433594 -0.11035156 -0.27734375 -0.046142578 -0.0034332275 -0.05444336 0.03173828 0.0134887695 -0.14355469 -0.1796875 -0.140625 0.009521484 0.07519531 -0.13476562 0.10644531 -0.052490234 -0.099121094 0.07519531 -0.07080078 -0.048095703 -0.016357422 -0.038085938 -0.018188477 0.100097656 -0.140625 -0.026000977 0.14746094 -0.0126953125 0.044677734 0.20214844 0.060546875 0.02758789 -0.30664062 0.107421875 0.03491211 0.16503906 0.022583008 -0.05908203 -0.06225586 0.118652344 0.05859375 0.27734375 0.07519531 -0.07470703 0.056884766 0.059814453 -0.029052734 -0.18457031 -0.030761719 -0.03930664 0.013793945 0.03930664 -0.02709961 0.16796875 0.18457031 -0.11230469 -0.22460938 0.1328125 -0.0023345947 0.12011719 0.328125 0.071777344 -0.09326172 -0.060791016 -0.01586914 -0.15820312 -0.006439209 -0.022827148 0.006225586 0.06689453 0.026123047 0.025878906 -0.002029419 -0.049072266 -0.15039062 -0.10253906 0.021850586 0.036132812 -0.057128906 0.15234375 -0.03173828 0.061035156 -0.17675781 -0.22753906 0.11328125 -0.011962891 0.16503906 -0.03173828
great 0.071777344 0.20800781 -0.028442383 0.17871094 0.1328125 -0.099609375 0.096191406 -0.11669922 -0.008544922 0.1484375 -0.033447266 -0.18554688 0.041015625 -0.08984375 0.021728516 0.06933594 0.18066406 0.22265625 -0.10058594 -0.06933594 0.00010442734 0.16015625 0.040771484 0.07373047 0.15332031 0.067871094 -0.103027344 0.041748047 0.04272461 -0.11035156 -0.06689453 0.041992188 0.25 0.21289062 0.15917969 0.014465332 -0.048828125 0.013977051 0.0035552979 0.20996094 0.15234375 -0.07324219 0.21679688 -0.057617188 -0.028442383 -0.0036010742 0.15234375 -0.026367188 0.021362305 -0.15136719 0.104003906 0.31835938 -0.18554688 0.036865234 -0.110839844 -0.03173828 -0.1015625 -0.12109375 0.32226562 -0.07324219 -0.15234375 0.26757812 -0.15039062 -0.123046875 0.107910156 0.06689453 -0.021362305 -0.10058594 -0.20507812 0.11767578 0.061523438 0.067871094 0.106933594 -0.07714844 -0.15234375 -0.0042419434 -0.14550781 0.25390625 0.048095703 0.09716797 -0.008361816 0.11279297 0.053466797 0.017944336 -0.056396484 -0.33007812 -0.09765625 0.14257812 -0.13769531 0.022094727 0.100097656 -0.057128906 -0.15625 -0.006378174 -0.09375 -0.046875 0.0859375 0.30664062 -0.111328125 -0.19433594 -0.20800781 0.08105469 -0.041992188 -0.08300781 -0.104003906 0.29296875 0.023925781 -0.03857422 0.03564453 -0.10498047 -0.06542969 0.27929688 -0.11621094 -0.014587402 0.38476562 -0.078125 -0.029296875 -0.13574219 -0.053955078 -0.05493164 -0.08105469 -0.028808594 0.083496094 0.2734375 -0.06201172 -0.047851562 -0.010925293 -0.11376953 -0.10986328 0.20214844 -0.12890625 -0.06689453 -0.26757812 0.096191406 0.104003906 -0.16992188 0.055664062 0.15429688 0.080566406 0.21972656 -0.22753906 0.11035156 -0.008117676 -0.056396484 -0.09033203 -0.07763672 -0.036132812 0.036132812 0.15820312 -0.15625 0.2265625 0.28515625 -0.05517578 0.35351562 -0.12060547 0.10595703 0.03112793 -0.19140625 -0.23144531 -0.111816406 0.002380371 0.07519531 -0.012878418 0.10058594 0.4453125 -0.27734375 0.06689453 -0.08105469 0.063964844 0.018554688 -0.111328125 0.09765625 0.20605469 -0.13085938 0.023925781 0.110839844 0.080566406 -0.15234375 0.004852295 0.018432617 -0.091796875 -0.24121094 0.083984375 -0.10058594 -0.15429688 0.02758789 -0.1640625 -0.1015625 -0.006072998 0.001335144 -0.25390625 0.31445312 0.13183594 -0.13183594 0.021728516 -0.15625 -0.14648438 -0.05126953 -0.12060547 -0.21582031 0.03100586 0.13085938 0.09716797 0.0056762695 0.022094727 0.12695312 -0.012451172 0.061523438 -0.022338867 0.25 -0.071777344 0.15820312 -0.072753906 0.01977539 0.008850098 -0.09082031 0.36328125 -0.09033203 0.024169922 -0.013977051 -0.05102539 0.024047852 0.0058898926 -0.10205078 -0.008850098 0.030517578 -0.078125 -0.12792969 0.03857422 0.028686523 -0.22851562 -0.012512207 0.15429688 0.091308594 0.10546875 -0.064453125 -0.12890625 -0.10205078 -0.021606445 -0.032958984 0.07470703 0.037841797 0.07421875 -0.012390137 -0.046875 0.0048828125 0.103515625 -0.08691406 -0.2265625 -0.25390625 0.035888672 0.4453125 0.055664062 0.15917969 0.27148438 -0.10839844 0.0625 -0.055908203 -0.25 -0.15527344 -0.068359375 -0.13964844 -0.15917969 -0.017944336 0.021240234 0.07373047 0.13085938 -0.080566406 0.029907227 0.015563965 -0.16601562 0.15039062 -0.0067749023 0.010131836 0.114746094 -0.1484375 -0.045898438 -0.13964844 -0.17382812 -0.04272461 -0.05810547 0.052246094 -0.111328125 0.084472656 -0.025512695 0.140625 -0.18164062 0.017211914 -0.13769531 -0.014770508 -0.011474609 0.064453125 -0.2890625 -0.048095703 -0.19921875 -0.07128906 0.064453125 -0.16796875 -0.020874023 -0.14257812
little 0.18945312 0.13671875 -0.09472656 0.2421875 -0.109375 0.044677734 0.19238281 -0.23242188 -0.064941406 0.24121094 0.14453125 -0.14746094 -0.10595703 -0.08544922 -0.18652344 -0.026611328 0.04736328 0.34765625 -0.05517578 0.037597656 -0.11230469 0.111328125 0.109375 0.017211914 0.055908203 0.038330078 -0.14746094 0.036621094 0.16210938 0.12451172 0.029174805 0.060546875 0.0015716553 -0.076660156 -0.07128906 -0.06298828 0.16601562 0.068359375 0.09277344 0.24121094 0.14160156 -0.19335938 0.19824219 0.060546875 0.06689453 0.115234375 -0.07128906 0.18652344 0.12792969 -0.03491211 0.02368164 0.125 0.06591797 -0.06982422 0.052734375 0.049072266 0.023803711 -0.19921875 0.030273438 -0.23242188 -0.083984375 0.16699219 -0.045898438 -0.046875 -0.052734375 -0.13476562 0.09814453 -0.0107421875 -0.048583984 0.03173828 0.15917969 0.05444336 -0.05078125 -0.0079956055 -0.15039062 0.018798828 0.15429688 0.12207031 0.10107422 0.12988281 0.103515625 0.0018615723 -0.078125 0.07080078 -0.25 -0.12792969 0.08300781 0.20996094 0.16796875 0.0859375 0.25195312 0.104003906 -0.13964844 -0.012145996 -0.15527344 -0.059570312 0.07861328 0.18359375 -0.16503906 -0.05419922 -0.028442383 -0.123535156 -0.023925781 -0.072753906 -0.16699219 0.06933594 -0.046142578 0.021606445 0.016845703 -0.13769531 0.023803711 0.10253906 0.13183594 0.00491333 -0.040283203 -0.060302734 0.265625 0.036376953 0.103515625 0.07324219 -0.06689453 0.053466797 -0.13671875 0.13378906 -0.092285156 0.09472656 -0.036376953 -0.057617188 0.040771484 0.013793945 0.048339844 -0.125 0.011657715 0.068359375 0.024780273 -0.10058594 0.2578125 0.17089844 -0.016113281 -0.09667969 -0.107910156 -0.16992188 0.10205078 -0.080078125 -0.06591797 -0.007293701 -0.23828125 -0.03564453 -0.19238281 -0.055419922 -0.034179688 -0.15039062 -0.23535156 0.17382812 -0.05419922 0.024291992 -0.0115356445 -0.06982422 -0.27539062 0.20117188 0.140625 0.21386719 -0.022705078 0.036132812 0.087402344 -0.1796875 0.06347656 0.12988281 0.14160156 -0.140625 -0.13085938 0.13476562 0.02722168 -0.092285156 -0.100097656 0.080566406 -0.022338867 -0.10644531 0.088378906 -0.010681152 -0.0020751953 -0.040771484 0.043701172 0.076171875 -0.13085938 -0.09277344 -0.009277344 -0.1796875 -0.056396484 -0.006286621 0.14941406 -0.140625 0.030151367 -0.15332031 -0.018066406 -0.026733398 -0.25 -0.043701172 -0.119628906 -0.0390625 -0.140625 -0.048095703 -0.104003906 0.12597656 0.24511719 -0.13964844 -0.052246094 0.06347656 -0.034179688 0.10888672 -0.06225586 0.047851562 0.030395508 0.036376953 -0.008666992 0.026245117 0.16308594 0.10205078 -0.021606445 -0.087402344 0.032226562 0.0039978027 -0.028076172 -0.09765625 -0.12792969 -0.05493164 0.080078125 0.07080078 0.034179688 0.3046875 -0.025634766 -0.14648438 0.14941406 -0.047607422 -0.06591797 0.057128906 -0.01361084 -0.3984375 0.16503906 -0.010803223 0.25 -0.019897461 0.1640625 -0.171875 0.0079956055 -0.03466797 -0.025512695 0.01184082 -0.09863281 0.050048828 -0.011230469 0.20996094 0.119628906 0.06591797 0.03540039 -0.103027344 0.06689453 0.106933594 -0.08203125 -0.03173828 -0.028808594 -0.114746094 -0.18457031 -0.13476562 -0.123046875 0.13183594 -0.08886719 -0.20898438 -0.24609375 0.068359375 -0.013122559 0.21972656 0.23925781 0.026855469 0.052978516 -0.13671875 -0.12890625 -0.10595703 0.08154297 0.009155273 0.10253906 -0.0028533936 0.100097656 -0.012329102 0.0024719238 -0.01184082 -0.17871094 -0.08935547 -0.087890625 0.083496094 -0.15039062 0.041992188 -0.027709961 0.010375977 -0.05126953 -0.03857422 0.17871094 0.076171875 0.015380859 -0.05029297
